{"learner":{"attributes":{"scikit_learn":"{\"_estimator_type\": \"classifier\"}"},"feature_names":[],"feature_types":[],"gradient_booster":{"model":{"gbtree_model_param":{"num_parallel_tree":"1","num_trees":"300"},"iteration_indptr":[0,1,2,3,4,5,6,7,8,9,10,11,12,13,14,15,16,17,18,19,20,21,22,23,24,25,26,27,28,29,30,31,32,33,34,35,36,37,38,39,40,41,42,43,44,45,46,47,48,49,50,51,52,53,54,55,56,57,58,59,60,61,62,63,64,65,66,67,68,69,70,71,72,73,74,75,76,77,78,79,80,81,82,83,84,85,86,87,88,89,90,91,92,93,94,95,96,97,98,99,100,101,102,103,104,105,106,107,108,109,110,111,112,113,114,115,116,117,118,119,120,121,122,123,124,125,126,127,128,129,130,131,132,133,134,135,136,137,138,139,140,141,142,143,144,145,146,147,148,149,150,151,152,153,154,155,156,157,158,159,160,161,162,163,164,165,166,167,168,169,170,171,172,173,174,175,176,177,178,179,180,181,182,183,184,185,186,187,188,189,190,191,192,193,194,195,196,197,198,199,200,201,202,203,204,205,206,207,208,209,210,211,212,213,214,215,216,217,218,219,220,221,222,223,224,225,226,227,228,229,230,231,232,233,234,235,236,237,238,239,240,241,242,243,244,245,246,247,248,249,250,251,252,253,254,255,256,257,258,259,260,261,262,263,264,265,266,267,268,269,270,271,272,273,274,275,276,277,278,279,280,281,282,283,284,285,286,287,288,289,290,291,292,293,294,295,296,297,298,299,300],"tree_info":[0,0,0,0,0,0,0,0,0,0,0,0,0,0,0,0,0,0,0,0,0,0,0,0,0,0,0,0,0,0,0,0,0,0,0,0,0,0,0,0,0,0,0,0,0,0,0,0,0,0,0,0,0,0,0,0,0,0,0,0,0,0,0,0,0,0,0,0,0,0,0,0,0,0,0,0,0,0,0,0,0,0,0,0,0,0,0,0,0,0,0,0,0,0,0,0,0,0,0,0,0,0,0,0,0,0,0,0,0,0,0,0,0,0,0,0,0,0,0,0,0,0,0,0,0,0,0,0,0,0,0,0,0,0,0,0,0,0,0,0,0,0,0,0,0,0,0,0,0,0,0,0,0,0,0,0,0,0,0,0,0,0,0,0,0,0,0,0,0,0,0,0,0,0,0,0,0,0,0,0,0,0,0,0,0,0,0,0,0,0,0,0,0,0,0,0,0,0,0,0,0,0,0,0,0,0,0,0,0,0,0,0,0,0,0,0,0,0,0,0,0,0,0,0,0,0,0,0,0,0,0,0,0,0,0,0,0,0,0,0,0,0,0,0,0,0,0,0,0,0,0,0,0,0,0,0,0,0,0,0,0,0,0,0,0,0,0,0,0,0,0,0,0,0,0,0,0,0,0,0,0,0,0,0,0,0,0,0,0,0,0,0,0,0,0,0,0,0,0,0],"trees":[{"base_weights":[-8.54815E-3,-5.757075E-1,1.1252629E0,-1.6090909E-1,-9.023189E-1,5.224126E-1,1.5727749E0,2.3821179E-2,-5.8392525E-1,-3.5864297E-1,-1.0103048E0,1.967742E-1,4.3266118E-1,7.4897116E-1,1.608086E0,-3.336291E-1,2.3150297E-1,-2.7002802E-1,-1.2080537E0,-4.4419643E-1,1.884058E-1,-1.059725E0,-1.793722E-2,6.3550836E-1,-4.903581E-1,1.8709677E-1,3.5675675E-1,1.9852398E-1,1.5655159E0,-4.6309403E-1,5.857143E-1,9.104478E-1,1.2249776E-1,-4.4915873E-1,3.127962E-1,-1.2963855E0,-5.882353E-2,-3.3976352E-1,-1.3227513E0,-1.0038255E0,-1.4787645E0,1.8095239E-1,-2.0588236E-1,8.626692E-1,2.5182778E-1,-1.2215569E0,1.3131313E-1,-0E0,9.041096E-1,1.5736041E0,1.25E-1,-1.663443E-1,-7.848101E-1,8.888889E-1,1.6393442E-1,1.1782477E0,4.6889952E-1,2.811245E-1,-3.3681765E-1,1.2180746E-1,-7.842227E-1,1.9090909E-1,-1.0650887E-1,-1.3638676E0,-8.3333336E-2,5.0980395E-1,-1.4285715E-1,-2.3402728E-1,-1.0091743E0,2.2222222E-1,-1.4514285E0,-1.1319491E0,-8.321948E-1,-1.3254437E0,-1.7472527E0,2.8169014E-2,-7.1875E-1,5.131579E-1,1.0054644E0,1.32626E-1,1.5384616E0,-1.4949495E0,-8E-1,3.322884E-1,-6.666667E-1,-5.925926E-1,4.848485E-1,3.478261E-1,1.6129033E-1,-8.0000006E-2,1.5771499E0,-5.4545456E-1,1.1428572E-1,-3.6626507E-2,6.3461535E-2,-8.624709E-2,-4.255319E-3,1.1333334E-1,1.7391305E-2,1.4285715E-1,-0E0,1.4764398E-1,7.5E-2,6.982248E-2,-4.5454547E-2,1.7126814E-2,9.3557425E-2,-9.90099E-2,-1.3574662E-2,-6.0869563E-2,1.3507853E-1,-1.3162394E-1,-5.822785E-2,-9.090909E-2,4.723618E-2,-1.4E-1,-2.666667E-2,-1.4285715E-1,4.2105265E-2,-2.0689657E-2,1.2307693E-1,-3.792049E-2,1.9101124E-1,-1.21276595E-1,2.3529412E-2,-1E-1,8.571429E-2,-1.5636365E-1,2.857143E-2,-7.89916E-2,-1.3326234E-1,-5.5259466E-2,-1.03547566E-1,-1.1363637E-1,-1.65E-1,-1.7865169E-1,-0E0,-2.9299363E-2,4.1221377E-2,6.0869563E-2,-9.724771E-2,7.82241E-2,-4.172662E-2,-7.368421E-2,1.0255349E-1,3.6253776E-2,-1.9027485E-2,1.670103E-1,-1.818182E-2,-1.5578948E-1,-0E0,-3.1578947E-2,-1.2941177E-1,7.1428576E-3,9.090909E-2,6.2068965E-2,-1.2857144E-1,-8.0000006E-2,1E-1,1.0967743E-1,-5.1282053E-3,6.341463E-2,-1.1111112E-1,7.951807E-2,1.5892562E-1,6.666667E-2,-1.0588236E-1],"categories":[],"categories_nodes":[],"categories_segments":[],"categories_sizes":[],"default_left":[0,0,0,0,0,0,0,0,0,0,0,0,0,0,0,0,0,0,0,0,0,0,0,0,0,0,0,0,0,0,0,0,0,0,0,0,0,0,0,0,0,0,0,0,0,0,0,0,0,0,0,0,0,0,0,0,0,0,0,0,0,0,0,0,0,0,0,0,0,0,0,0,0,0,0,0,0,0,0,0,0,0,0,0,0,0,0,0,0,0,0,0,0,0,0,0,0,0,0,0,0,0,0,0,0,0,0,0,0,0,0,0,0,0,0,0,0,0,0,0,0,0,0,0,0,0,0,0,0,0,0,0,0,0,0,0,0,0,0,0,0,0,0,0,0,0,0,0,0,0,0,0,0,0,0,0,0,0,0,0,0,0,0,0,0,0,0],"id":0,"left_children":[1,3,5,7,9,11,13,15,17,19,21,-1,23,25,27,29,31,33,35,37,-1,39,41,43,45,-1,47,-1,49,51,53,55,57,59,61,63,65,67,69,71,73,-1,75,77,79,81,83,85,87,89,91,93,95,97,99,101,103,105,107,109,111,-1,113,115,117,119,-1,121,123,125,127,129,131,133,135,137,139,141,143,145,147,149,151,153,155,157,159,161,-1,-1,163,165,-1,-1,-1,-1,-1,-1,-1,-1,-1,-1,-1,-1,-1,-1,-1,-1,-1,-1,-1,-1,-1,-1,-1,-1,-1,-1,-1,-1,-1,-1,-1,-1,-1,-1,-1,-1,-1,-1,-1,-1,-1,-1,-1,-1,-1,-1,-1,-1,-1,-1,-1,-1,-1,-1,-1,-1,-1,-1,-1,-1,-1,-1,-1,-1,-1,-1,-1,-1,-1,-1,-1,-1,-1,-1,-1],"loss_changes":[4.8151743E3,6.7605884E2,6.7275854E2,1.7193045E2,1.6356909E2,1.3733319E2,4.0466064E1,1.1382521E2,1.306901E2,8.991292E1,1.1420215E2,0E0,1.8833922E2,2.606636E1,1.8932373E1,6.7340546E1,7.165823E1,4.6729767E1,2.261206E1,4.0654594E1,0E0,5.0481934E1,3.8668606E1,7.157852E1,8.2664E1,0E0,9.0313225E0,0E0,1.4230469E1,4.7078957E1,8.805386E0,1.5292564E1,6.1060043E1,6.547579E1,7.081812E1,1.6872162E1,1.3969188E1,2.820008E1,9.715981E0,4.216931E1,8.345825E0,0E0,1.2264058E1,2.5286743E1,4.6995277E1,8.42746E0,1.6098572E1,8.619529E0,6.6347866E0,1.1624268E1,6.0827923E0,4.162565E1,1.3624985E1,6.8811607E0,6.323185E0,9.459854E0,1.1382323E1,4.4594692E1,2.813997E1,1.1506373E2,2.2386398E1,0E0,3.9687378E1,7.4167786E0,8.743734E0,6.8427734E0,0E0,1.0912796E2,1.4093666E1,4.349206E0,8.974541E0,7.580383E1,4.727063E1,8.496033E0,6.242981E0,8.8779745E0,1.1369825E1,3.8381336E1,1.355423E1,2.1059975E1,6.1916275E0,4.6579514E0,7.9653263E0,1.1934618E1,1.693596E1,5.259259E0,5.469434E0,5.5084243E0,0E0,0E0,1.037793E1,4.128342E0,0E0,0E0,0E0,0E0,0E0,0E0,0E0,0E0,0E0,0E0,0E0,0E0,0E0,0E0,0E0,0E0,0E0,0E0,0E0,0E0,0E0,0E0,0E0,0E0,0E0,0E0,0E0,0E0,0E0,0E0,0E0,0E0,0E0,0E0,0E0,0E0,0E0,0E0,0E0,0E0,0E0,0E0,0E0,0E0,0E0,0E0,0E0,0E0,0E0,0E0,0E0,0E0,0E0,0E0,0E0,0E0,0E0,0E0,0E0,0E0,0E0,0E0,0E0,0E0,0E0,0E0,0E0,0E0,0E0,0E0,0E0,0E0,0E0,0E0,0E0],"parents":[2147483647,0,0,1,1,2,2,3,3,4,4,5,5,6,6,7,7,8,8,9,9,10,10,12,12,13,13,14,14,15,15,16,16,17,17,18,18,19,19,21,21,22,22,23,23,24,24,26,26,28,28,29,29,30,30,31,31,32,32,33,33,34,34,35,35,36,36,37,37,38,38,39,39,40,40,42,42,43,43,44,44,45,45,46,46,47,47,48,48,49,49,50,50,51,51,52,52,53,53,54,54,55,55,56,56,57,57,58,58,59,59,60,60,62,62,63,63,64,64,65,65,67,67,68,68,69,69,70,70,71,71,72,72,73,73,74,74,75,75,76,76,77,77,78,78,79,79,80,80,81,81,82,82,83,83,84,84,85,85,86,86,87,87,90,90,91,91],"right_children":[2,4,6,8,10,12,14,16,18,20,22,-1,24,26,28,30,32,34,36,38,-1,40,42,44,46,-1,48,-1,50,52,54,56,58,60,62,64,66,68,70,72,74,-1,76,78,80,82,84,86,88,90,92,94,96,98,100,102,104,106,108,110,112,-1,114,116,118,120,-1,122,124,126,128,130,132,134,136,138,140,142,144,146,148,150,152,154,156,158,160,162,-1,-1,164,166,-1,-1,-1,-1,-1,-1,-1,-1,-1,-1,-1,-1,-1,-1,-1,-1,-1,-1,-1,-1,-1,-1,-1,-1,-1,-1,-1,-1,-1,-1,-1,-1,-1,-1,-1,-1,-1,-1,-1,-1,-1,-1,-1,-1,-1,-1,-1,-1,-1,-1,-1,-1,-1,-1,-1,-1,-1,-1,-1,-1,-1,-1,-1,-1,-1,-1,-1,-1,-1,-1,-1,-1,-1,-1,-1],"split_conditions":[2.5805384E-2,-3.1904867E-1,9.155191E-1,-3.9885214E-1,-6.7427635E-1,9.047122E-1,-6.3756615E-1,-2.9303342E-1,-6.763978E-1,-7.3989165E-1,3.8829505E-1,1.967742E-1,-2.490913E-1,1.7945639E0,1.7945639E0,2.0495011E-1,-2.7946618E-1,-9.0398353E-1,3.8829505E-1,1.770291E-1,1.884058E-1,4.2563495E-1,1.9923155E0,-2.8890654E-1,1.321805E0,1.8709677E-1,-5.442389E-1,1.9852398E-1,1.5185584E0,-3.1465188E-1,-1.6115646E-1,-6.1009508E-2,2.5033882E-1,-9.0549827E-1,-8.284243E-1,3.860927E-1,-1.7342825E-1,-7.5135034E-1,-6.701656E-1,4.101965E-1,1.4837947E0,1.8095239E-1,2.5033882E-1,-5.5605584E-1,1.9194832E0,-1.1946739E-2,1.5235451E-1,-6.874935E-1,-2.5688875E-1,-6.8988717E-1,1.7961061E0,1.0284666E0,-1.2541051E-1,-3.0104423E-1,-6.5579325E-1,-5.860247E-1,-2.4081479E-1,8.197903E-1,-2.9452872E-1,-1.0570058E0,-2.893391E-1,1.9090909E-1,-8.250813E-1,8.197903E-1,-1.511755E-1,-2.2560865E-1,-1.4285715E-1,-8.250813E-1,4.094407E-1,-2.5576105E-2,1.3851967E-1,-6.106576E-1,7.887726E-1,1.388648E-1,6.4618883E0,-1.0116923E-1,-2.2955954E-1,-2.8933078E-1,-6.714589E-1,-6.164517E-1,-1.742105E-1,1.4443786E0,4.0621343E-1,4.977197E-2,-1.3539453E-1,1.36394E0,-6.5361714E-1,-6.557093E-1,1.6129033E-1,-8.0000006E-2,-1.4547888E0,-8.250813E-1,1.1428572E-1,-3.6626507E-2,6.3461535E-2,-8.624709E-2,-4.255319E-3,1.1333334E-1,1.7391305E-2,1.4285715E-1,-0E0,1.4764398E-1,7.5E-2,6.982248E-2,-4.5454547E-2,1.7126814E-2,9.3557425E-2,-9.90099E-2,-1.3574662E-2,-6.0869563E-2,1.3507853E-1,-1.3162394E-1,-5.822785E-2,-9.090909E-2,4.723618E-2,-1.4E-1,-2.666667E-2,-1.4285715E-1,4.2105265E-2,-2.0689657E-2,1.2307693E-1,-3.792049E-2,1.9101124E-1,-1.21276595E-1,2.3529412E-2,-1E-1,8.571429E-2,-1.5636365E-1,2.857143E-2,-7.89916E-2,-1.3326234E-1,-5.5259466E-2,-1.03547566E-1,-1.1363637E-1,-1.65E-1,-1.7865169E-1,-0E0,-2.9299363E-2,4.1221377E-2,6.0869563E-2,-9.724771E-2,7.82241E-2,-4.172662E-2,-7.368421E-2,1.0255349E-1,3.6253776E-2,-1.9027485E-2,1.670103E-1,-1.818182E-2,-1.5578948E-1,-0E0,-3.1578947E-2,-1.2941177E-1,7.1428576E-3,9.090909E-2,6.2068965E-2,-1.2857144E-1,-8.0000006E-2,1E-1,1.0967743E-1,-5.1282053E-3,6.341463E-2,-1.1111112E-1,7.951807E-2,1.5892562E-1,6.666667E-2,-1.0588236E-1],"split_indices":[3,21,3,9,0,3,22,20,0,0,8,0,21,3,3,5,20,0,8,16,0,16,8,0,4,0,5,0,19,15,2,0,0,0,0,11,12,0,12,9,0,0,0,22,2,18,21,9,16,9,3,0,16,18,14,9,17,6,18,0,11,0,0,6,16,20,0,0,12,2,9,10,1,5,18,20,16,17,12,8,16,7,21,17,18,0,13,12,0,0,2,0,0,0,0,0,0,0,0,0,0,0,0,0,0,0,0,0,0,0,0,0,0,0,0,0,0,0,0,0,0,0,0,0,0,0,0,0,0,0,0,0,0,0,0,0,0,0,0,0,0,0,0,0,0,0,0,0,0,0,0,0,0,0,0,0,0,0,0,0,0,0,0,0,0,0,0],"split_type":[0,0,0,0,0,0,0,0,0,0,0,0,0,0,0,0,0,0,0,0,0,0,0,0,0,0,0,0,0,0,0,0,0,0,0,0,0,0,0,0,0,0,0,0,0,0,0,0,0,0,0,0,0,0,0,0,0,0,0,0,0,0,0,0,0,0,0,0,0,0,0,0,0,0,0,0,0,0,0,0,0,0,0,0,0,0,0,0,0,0,0,0,0,0,0,0,0,0,0,0,0,0,0,0,0,0,0,0,0,0,0,0,0,0,0,0,0,0,0,0,0,0,0,0,0,0,0,0,0,0,0,0,0,0,0,0,0,0,0,0,0,0,0,0,0,0,0,0,0,0,0,0,0,0,0,0,0,0,0,0,0,0,0,0,0,0,0],"sum_hessian":[7.486E3,4.99025E3,2.49575E3,2.199E3,2.79125E3,1.06425E3,1.4315E3,1.53125E3,6.6775E2,4.6325E2,2.328E3,6.1E1,1.00325E3,5.975E1,1.37175E3,5.625E2,9.6875E2,4.4525E2,2.225E2,4.47E2,1.625E1,2.2175E3,1.105E2,8.2275E2,1.805E2,1.45E1,4.525E1,1.345E2,1.23725E3,4.935E2,6.9E1,1.33E2,8.3575E2,3.4075E2,1.045E2,2.065E2,1.6E1,4.0075E2,4.625E1,1.9595E3,2.58E2,9.5E0,1.01E2,5.16E2,3.0675E2,8.25E1,9.8E1,2.8E1,1.725E1,1.23025E3,7E0,2.575E2,2.36E2,3.95E1,2.95E1,8.175E1,5.125E1,6.215E2,2.1425E2,1.2625E2,2.145E2,2.1E1,8.35E1,1.955E2,1.1E1,1.175E1,4.25E0,3.4725E2,5.35E1,3.5E0,4.275E1,1.11875E3,8.4075E2,1.68E2,9E1,7E1,3.1E1,1.51E2,3.65E2,2.8175E2,2.5E1,4.85E1,3.4E1,7.875E1,1.925E1,1.25E1,1.55E1,1.05E1,6.75E0,1.5E0,1.22875E3,4.5E0,2.5E0,2.065E2,5.1E1,2.135E2,2.25E1,2.9E1,1.05E1,2.5E0,2.7E1,4.675E1,3.5E1,4.125E1,1E1,5.3325E2,8.825E1,4.95E1,1.6475E2,7.95E1,4.675E1,5.75E1,1.57E2,3.475E1,4.875E1,1.89E2,6.5E0,2.5E0,8.5E0,6.25E0,5.5E0,3.26E2,2.125E1,4.6E1,7.5E0,1E0,2.5E0,4.025E1,2.5E0,4.155E2,7.0325E2,3.555E2,4.8525E2,1.09E2,5.9E1,8.8E1,2E0,3.825E1,3.175E1,4.75E0,2.625E1,1.1725E2,3.375E1,3.75E0,3.6125E2,1.645E2,1.1725E2,2.325E1,1.75E0,4.65E1,2E0,1.8E1,1.6E1,5.5E1,2.375E1,6.25E0,1.3E1,1.15E1,1E0,6.75E0,8.75E0,9.25E0,1.25E0,1.975E1,1.209E3,1.25E0,3.25E0],"tree_param":{"num_deleted":"0","num_feature":"23","num_nodes":"167","size_leaf_vector":"1"}},{"base_weights":[-1.2633351E-3,-5.1237875E-1,1.0164427E0,-1.6195919E-1,-8.341762E-1,4.6908697E-1,1.4248289E0,-2.4933356E-1,5.867645E-1,-6.045924E-1,-1.0700654E0,1.7912322E-1,3.8918322E-1,6.5144914E-1,1.450628E0,1.5534332E-3,-4.4338444E-1,-3.4450486E-2,7.7584034E-1,-6.719471E-1,2.5711325E-1,-1.1761755E0,-6.111587E-1,5.841491E-1,-3.6244807E-1,1.6901787E-1,2.5050128E-1,1.8065874E-1,1.4107058E0,-6.46458E-2,1.9229184E-1,-2.0161225E-1,-9.97249E-1,3.8885882E-1,-1.0402598E0,9.229025E-1,2.3615316E-1,-6.923216E-1,1.8606365E-1,1.8005106E-1,1.0599013E-1,-9.4825387E-1,-1.4297657E0,-4.3960455E-1,-1.2147777E0,9.623112E-1,4.102499E-1,-1.0053891E0,1.6622259E-1,6.999405E-2,1.490039E-1,1.4244893E0,4.5532614E-1,-3.1996593E-1,1.21104404E-1,-2.3655024E-1,1.7984055E-1,-1.0885483E0,3.9069495E-1,-1.0172465E0,6.050142E-1,-1.2956636E0,-3.2341984E-1,1.0342317E0,1.392587E-1,-6.6239333E-1,8.984773E-1,-5.5701935E-1,-1.009893E0,4.396397E-1,-6.5977293E-1,-1.0599915E0,1.98271E-1,-1.4630544E0,-5.984195E-1,1.226142E0,-5.030652E-1,-8.182801E-2,-1.358056E0,7.579315E-1,1.6464112E0,2.925967E-1,8.1977123E-1,4.4313404E-1,-1.0619962E0,2.7435905E-1,-1.2236913E0,1.0420486E0,-1.2505886E-1,-3.8749462E-1,1.4288749E0,-1.2034216E-1,6.374884E-1,1.2181993E-2,-5.3343114E-2,3.336991E-2,-2.7874017E-2,4.9244897E-3,-5.2278947E-2,-1.1471504E-1,-3.4560345E-2,7.539346E-2,-1.289614E-1,-3.6839533E-3,-1.4975344E-1,1.04870655E-1,1.5077651E-3,-1.6849851E-2,-1.4598043E-1,3.821555E-2,-1.03751495E-1,1.0897791E-1,-5.003314E-2,5.9874684E-2,-7.3567085E-2,-1.0385533E-1,8.420884E-2,-1.0253052E-1,1.13679305E-1,-3.0840565E-2,-7.180425E-2,-7.779518E-2,-1.3634945E-1,-7.5470455E-2,6.362266E-2,-8.509677E-2,8.794887E-2,-8.013936E-2,-1.2751451E-1,-1.5318935E-1,-1.2085941E-1,1.2701724E-1,-8.129059E-2,5.808422E-3,1.65957E-1,-2.6976252E-2,-7.73383E-2,-1.1948985E-1,1.0514521E-1,-1.6556601E-1,-8.524738E-2,9.419745E-2,1.9601686E-2,1.693672E-1,-6.1575207E-3,6.2043514E-2,5.0370432E-3,9.983709E-2,3.641324E-2,1.24639384E-1,-4.5055784E-2,-8.193927E-2,-1.4999604E-1,6.920478E-3,7.354609E-2,-2.800996E-2,-1.4706789E-1,-2.270616E-2,1.4694057E-1,1.3330939E-2,-1.0350355E-1,-1.1674108E-1,6.513386E-2,1.4547102E-1,1.0516608E-1,1.0787833E-1,-1.2198694E-2],"categories":[],"categories_nodes":[],"categories_segments":[],"categories_sizes":[],"default_left":[0,0,0,0,0,0,0,0,0,0,0,0,0,0,0,0,0,0,0,0,0,0,0,0,0,0,0,0,0,0,0,0,0,0,0,0,0,0,0,0,0,0,0,0,0,0,0,0,0,0,0,0,0,0,0,0,0,0,0,0,0,0,0,0,0,0,0,0,0,0,0,0,0,0,0,0,0,0,0,0,0,0,0,0,0,0,0,0,0,0,0,0,0,0,0,0,0,0,0,0,0,0,0,0,0,0,0,0,0,0,0,0,0,0,0,0,0,0,0,0,0,0,0,0,0,0,0,0,0,0,0,0,0,0,0,0,0,0,0,0,0,0,0,0,0,0,0,0,0,0,0,0,0,0,0,0,0,0,0,0,0,0,0,0,0,0,0],"id":1,"left_children":[1,3,5,7,9,11,13,15,17,19,21,-1,23,25,27,29,31,33,35,37,39,41,43,45,47,-1,49,-1,51,53,-1,55,57,59,61,63,65,67,-1,-1,69,71,73,75,77,79,81,83,85,87,-1,89,91,93,95,97,-1,99,101,103,105,107,109,111,113,115,117,119,121,123,125,127,-1,129,131,133,135,137,139,141,143,145,147,149,151,153,155,157,159,161,163,-1,165,-1,-1,-1,-1,-1,-1,-1,-1,-1,-1,-1,-1,-1,-1,-1,-1,-1,-1,-1,-1,-1,-1,-1,-1,-1,-1,-1,-1,-1,-1,-1,-1,-1,-1,-1,-1,-1,-1,-1,-1,-1,-1,-1,-1,-1,-1,-1,-1,-1,-1,-1,-1,-1,-1,-1,-1,-1,-1,-1,-1,-1,-1,-1,-1,-1,-1,-1,-1,-1,-1,-1,-1,-1,-1],"loss_changes":[3.8728323E3,5.587517E2,5.5573584E2,1.5544177E2,1.3926038E2,1.1182417E2,2.7488037E1,1.0352788E2,2.9199615E1,7.629193E1,6.1264526E1,0E0,1.475854E2,1.9491943E1,1.703711E1,1.18212425E2,1.6036389E2,2.5487919E1,1.489827E1,6.40694E1,2.21547E1,5.8336914E1,2.4436028E1,5.2143982E1,7.078231E1,0E0,7.877877E0,0E0,1.5730225E1,4.264903E1,0E0,5.883887E1,4.6564423E1,1.3438826E1,2.8256378E0,1.2883804E1,2.5667372E1,5.1330505E1,0E0,0E0,2.2856056E1,1.812048E2,1.2598877E1,2.0631245E1,8.4594345E0,3.383441E1,2.6212006E1,8.16893E0,1.7599915E1,6.2335525E0,0E0,1.0293457E1,6.5563464E0,3.577379E1,4.436471E1,6.7309616E1,0E0,1.4489197E1,1.5137846E1,2.7675529E0,9.720325E0,2.110014E0,3.4136539E0,1.1677567E1,8.372823E0,1.1317153E1,1.247908E1,3.3771027E1,2.8431E1,1.506506E1,8.754476E0,2.8324463E1,0E0,6.336731E0,9.2235985E0,3.5686665E0,1.1338409E1,1.0075723E1,5.631256E0,1.9986847E1,4.69458E0,3.3959442E1,9.562012E0,3.602868E0,8.40258E0,1.0107866E1,1.5631189E0,3.3095179E0,6.6511707E0,3.79538E0,1.0387939E1,0E0,6.1365595E0,0E0,0E0,0E0,0E0,0E0,0E0,0E0,0E0,0E0,0E0,0E0,0E0,0E0,0E0,0E0,0E0,0E0,0E0,0E0,0E0,0E0,0E0,0E0,0E0,0E0,0E0,0E0,0E0,0E0,0E0,0E0,0E0,0E0,0E0,0E0,0E0,0E0,0E0,0E0,0E0,0E0,0E0,0E0,0E0,0E0,0E0,0E0,0E0,0E0,0E0,0E0,0E0,0E0,0E0,0E0,0E0,0E0,0E0,0E0,0E0,0E0,0E0,0E0,0E0,0E0,0E0,0E0,0E0,0E0,0E0,0E0,0E0,0E0,0E0],"parents":[2147483647,0,0,1,1,2,2,3,3,4,4,5,5,6,6,7,7,8,8,9,9,10,10,12,12,13,13,14,14,15,15,16,16,17,17,18,18,19,19,20,20,21,21,22,22,23,23,24,24,26,26,28,28,29,29,31,31,32,32,33,33,34,34,35,35,36,36,37,37,40,40,41,41,42,42,43,43,44,44,45,45,46,46,47,47,48,48,49,49,51,51,52,52,53,53,54,54,55,55,57,57,58,58,59,59,60,60,61,61,62,62,63,63,64,64,65,65,66,66,67,67,68,68,69,69,70,70,71,71,73,73,74,74,75,75,76,76,77,77,78,78,79,79,80,80,81,81,82,82,83,83,84,84,85,85,86,86,87,87,88,88,89,89,90,90,92,92],"right_children":[2,4,6,8,10,12,14,16,18,20,22,-1,24,26,28,30,32,34,36,38,40,42,44,46,48,-1,50,-1,52,54,-1,56,58,60,62,64,66,68,-1,-1,70,72,74,76,78,80,82,84,86,88,-1,90,92,94,96,98,-1,100,102,104,106,108,110,112,114,116,118,120,122,124,126,128,-1,130,132,134,136,138,140,142,144,146,148,150,152,154,156,158,160,162,164,-1,166,-1,-1,-1,-1,-1,-1,-1,-1,-1,-1,-1,-1,-1,-1,-1,-1,-1,-1,-1,-1,-1,-1,-1,-1,-1,-1,-1,-1,-1,-1,-1,-1,-1,-1,-1,-1,-1,-1,-1,-1,-1,-1,-1,-1,-1,-1,-1,-1,-1,-1,-1,-1,-1,-1,-1,-1,-1,-1,-1,-1,-1,-1,-1,-1,-1,-1,-1,-1,-1,-1,-1,-1,-1,-1],"split_conditions":[2.5805384E-2,-2.952401E-1,9.155191E-1,2.0495011E-1,2.5033882E-1,9.047122E-1,-6.4059234E-1,1.4860523E-2,-3.1367806E-1,2.0495011E-1,2.026474E0,1.7912322E-1,-2.7851918E-1,1.7945639E0,1.7945639E0,-8.621342E-1,-6.7427635E-1,-5.22218E-1,-3.9885214E-1,2.0654756E-1,1.8099213E0,-1.060898E-2,1.9462384E0,-9.0549827E-1,1.321805E0,1.6901787E-1,-6.587603E-1,1.8065874E-1,6.676645E-1,-2.9303342E-1,1.9229184E-1,-7.3989165E-1,8.197903E-1,-6.903454E-1,-2.18893E-1,2.5033882E-1,-2.5238892E-1,-1.28179565E-2,1.8606365E-1,1.8005106E-1,-5.4045256E-2,-8.621342E-1,8.197903E-1,-1.060898E-2,3.44898E-2,-1.0570058E0,-3.1068563E-1,-6.5579325E-1,4.5453104E-1,-7.098946E-1,1.490039E-1,-6.9205654E-1,-2.48967E-1,-6.948813E-1,-4.0081713E-1,-9.0549827E-1,1.7984055E-1,2.6900247E-1,-1.7927276E-1,-6.8206143E-1,-1.2321035E0,-6.138639E-1,-1.2201444E-1,2.0085704E0,-2.3432495E-1,-3.21428E-1,-3.869279E-1,7.887726E-1,-1.2122435E-2,-8.621342E-1,1.402324E0,-6.2111974E-1,1.98271E-1,1.3398949E0,1.8994358E0,-8.621342E-1,1.770291E-1,-4.5284242E-3,4.373379E0,-1.0596461E0,-4.8488446E-2,-5.104898E-1,1.6430256E-1,-2.5688875E-1,-8.2529E-2,3.8829505E-1,-1.0116923E-1,-6.8607986E-1,-3.0761826E-1,8.197903E-1,2.6176543E0,-1.2034216E-1,1.5185584E0,1.2181993E-2,-5.3343114E-2,3.336991E-2,-2.7874017E-2,4.9244897E-3,-5.2278947E-2,-1.1471504E-1,-3.4560345E-2,7.539346E-2,-1.289614E-1,-3.6839533E-3,-1.4975344E-1,1.04870655E-1,1.5077651E-3,-1.6849851E-2,-1.4598043E-1,3.821555E-2,-1.03751495E-1,1.0897791E-1,-5.003314E-2,5.9874684E-2,-7.3567085E-2,-1.0385533E-1,8.420884E-2,-1.0253052E-1,1.13679305E-1,-3.0840565E-2,-7.180425E-2,-7.779518E-2,-1.3634945E-1,-7.5470455E-2,6.362266E-2,-8.509677E-2,8.794887E-2,-8.013936E-2,-1.2751451E-1,-1.5318935E-1,-1.2085941E-1,1.2701724E-1,-8.129059E-2,5.808422E-3,1.65957E-1,-2.6976252E-2,-7.73383E-2,-1.1948985E-1,1.0514521E-1,-1.6556601E-1,-8.524738E-2,9.419745E-2,1.9601686E-2,1.693672E-1,-6.1575207E-3,6.2043514E-2,5.0370432E-3,9.983709E-2,3.641324E-2,1.24639384E-1,-4.5055784E-2,-8.193927E-2,-1.4999604E-1,6.920478E-3,7.354609E-2,-2.800996E-2,-1.4706789E-1,-2.270616E-2,1.4694057E-1,1.3330939E-2,-1.0350355E-1,-1.1674108E-1,6.513386E-2,1.4547102E-1,1.0516608E-1,1.0787833E-1,-1.2198694E-2],"split_indices":[3,21,3,5,0,3,22,3,19,5,9,0,21,3,3,3,0,9,9,0,5,3,0,0,4,0,9,0,19,20,0,0,6,9,14,0,16,17,0,0,21,3,6,3,16,0,14,14,21,22,0,9,14,9,21,0,0,11,10,10,1,7,15,2,17,21,21,1,20,3,10,10,0,9,6,3,16,20,13,0,22,21,2,16,20,8,20,10,21,6,4,0,19,0,0,0,0,0,0,0,0,0,0,0,0,0,0,0,0,0,0,0,0,0,0,0,0,0,0,0,0,0,0,0,0,0,0,0,0,0,0,0,0,0,0,0,0,0,0,0,0,0,0,0,0,0,0,0,0,0,0,0,0,0,0,0,0,0,0,0,0,0,0,0,0,0,0],"split_type":[0,0,0,0,0,0,0,0,0,0,0,0,0,0,0,0,0,0,0,0,0,0,0,0,0,0,0,0,0,0,0,0,0,0,0,0,0,0,0,0,0,0,0,0,0,0,0,0,0,0,0,0,0,0,0,0,0,0,0,0,0,0,0,0,0,0,0,0,0,0,0,0,0,0,0,0,0,0,0,0,0,0,0,0,0,0,0,0,0,0,0,0,0,0,0,0,0,0,0,0,0,0,0,0,0,0,0,0,0,0,0,0,0,0,0,0,0,0,0,0,0,0,0,0,0,0,0,0,0,0,0,0,0,0,0,0,0,0,0,0,0,0,0,0,0,0,0,0,0,0,0,0,0,0,0,0,0,0,0,0,0,0,0,0,0,0,0],"sum_hessian":[7.443388E3,4.955246E3,2.488142E3,2.3728489E3,2.5823972E3,1.0640952E3,1.4240469E3,2.1254773E3,2.4737146E2,1.3104954E3,1.2719019E3,5.9422928E1,1.0046723E3,4.6818645E1,1.3772283E3,9.2741766E2,1.1980597E3,5.7913258E1,1.894582E2,1.2156917E3,9.480366E1,1.0317697E3,2.4013231E2,7.9792194E2,2.0675038E2,1.2143419E1,3.467523E1,1.3442256E2,1.2428057E3,8.974626E2,2.9955067E1,8.3495166E2,3.6310797E2,4.1190872E1,1.6722385E1,1.4832915E2,4.1129055E1,1.2067104E3,8.9812565E0,7.4815493E0,8.732211E1,5.458819E2,4.8588773E2,1.8833424E2,5.1798077E1,2.4991716E2,5.4800476E2,9.288584E1,1.1386455E2,3.1189707E1,3.4855218E0,1.2246465E3,1.8159237E1,3.776487E2,5.198139E2,8.2148303E2,1.3468629E1,3.4089923E2,2.2208735E1,4.994597E0,3.6196274E1,1.1734145E1,4.98824E0,1.2959792E2,1.8731226E1,1.7452246E1,2.367681E1,8.4812024E2,3.5859018E2,6.1118248E1,2.6203865E1,5.2645026E2,1.9431587E1,4.664503E2,1.9437437E1,6.2393565E0,1.8209488E2,5.9915967E0,4.580648E1,1.9405098E2,5.5866173E1,4.2703464E2,1.20970146E2,3.2365742E0,8.964927E1,1.0638993E2,7.474618E0,4.48686E0,2.6702847E1,2.7459762E0,1.2219005E3,1.2421402E0,1.6917097E1,1.23168816E2,2.5447989E2,3.3948004E2,1.8033385E2,4.114747E2,4.1000833E2,3.154714E2,2.5427826E1,1.871446E1,3.4942737E0,1.996291E0,2.9983058E0,2.0214931E1,1.5981344E1,1.7491512E0,9.984994E0,2.742902E0,2.2453375E0,1.2535039E2,4.2475343E0,1.2488358E1,6.242868E0,1.4209254E1,3.2429924E0,2.245766E0,2.1431044E1,3.3453134E2,5.1358887E2,2.184804E2,1.4010979E2,8.236878E0,5.2881367E1,2.3706406E1,2.4974601E0,2.4123244E2,2.8521783E2,3.6317947E2,1.032708E2,1.4946047E0,1.7942833E1,1.9955364E0,4.24382E0,9.881163E1,8.328326E1,2.9953203E0,2.9962766E0,2.7401932E1,1.8404547E1,1.4566513E2,4.838585E1,5.437011E1,1.496063E0,1.807879E2,2.4624672E2,8.60496E1,3.492055E1,1.4966826E0,1.7398915E0,5.9539303E1,3.0109964E1,7.4426186E1,3.1963745E1,1.9933367E0,5.4812813E0,1.2483516E0,3.2385085E0,2.1462526E1,5.2403197E0,1.497751E0,1.2482252E0,1.1409036E3,8.0996956E1,1.0433977E1,6.483119E0],"tree_param":{"num_deleted":"0","num_feature":"23","num_nodes":"167","size_leaf_vector":"1"}},{"base_weights":[6.04695E-3,-4.670845E-1,9.471191E-1,-1.24415584E-1,-7.38806E-1,4.516158E-1,1.3154631E0,-1.9960375E-1,6.200548E-1,-7.896859E-1,1.5714441E-1,1.6582833E-1,3.7937987E-1,6.318696E-1,1.3396498E0,8.276076E-3,-4.717614E-1,7.157621E-1,-6.133977E-1,-6.1118007E-1,-9.7835994E-1,1.8168603E-1,-3.426423E-2,5.4925776E-1,-3.556218E-1,1.5833728E-1,2.3850636E-1,1.672019E-1,1.3021572E0,-2.5707504E-1,1.8019406E-1,-2.3899959E-1,-1.0081846E0,-3.638424E-1,7.853646E-1,-1.0557466E0,1.1401534E-1,-6.2852585E-1,1.7068674E-1,-1.0550086E0,-5.4652846E-1,5.006364E-1,-4.0409473E-1,7.4573463E-1,2.1289203E-1,-9.3305475E-1,1.4632124E-1,-9.405967E-2,9.6452016E-1,1.3305095E0,8.665982E-1,-3.489045E-2,-6.090777E-1,3.4551418E-1,-3.692752E-1,-3.4656385E-1,2.4863656E-1,-1.0572674E0,7.836463E-3,-8.4142506E-1,9.117683E-1,1.0673965E0,5.0868505E-1,-1.2720953E0,3.2017592E-2,-4.8891804E-1,-9.011284E-1,-8.3592296E-1,-1.2852285E0,-3.4083657E-3,-7.6137936E-1,-7.6593995E-1,7.295533E-1,-7.132003E-1,6.5206945E-2,5.629758E-1,9.446482E-1,1.2741843E-1,1.3155531E0,-1.1474881E0,-4.1596255E-1,-1.1735376E-1,6.8131775E-1,-9.88211E-1,2.1930009E-1,1.149964E0,1.2431589E-2,5.3719354E-1,1.3457334E0,-4.5983943E-1,9.906046E-1,-1.7038306E-2,6.31147E-2,-7.0271194E-2,1.9356556E-2,8.4678225E-2,1.5883978E-2,-7.205809E-2,-1.2206699E-2,-2.551707E-3,-7.1638145E-2,1.803773E-1,-1.465866E-2,-1.1064763E-1,-2.3354558E-2,7.213557E-2,-1.2835582E-1,-1.4177251E-1,-1.9004522E-2,1.1810948E-1,2.0743132E-2,1.2878177E-1,6.847908E-2,3.3191204E-2,1.396342E-1,-5.7012655E-2,-1.555532E-1,-7.001931E-2,-3.5715934E-2,-1.0780076E-1,-5.5081733E-2,-9.2852645E-2,1.8140085E-1,-1.0434933E-1,-1.3807218E-1,-7.7259235E-2,5.010618E-2,-6.341743E-2,-1.4735769E-1,3.9405085E-2,-1.2728602E-1,9.199195E-2,-6.723524E-2,-4.9606018E-2,-1.2681606E-1,1.05490044E-1,-4.1658275E-2,6.0010172E-2,-7.305501E-2,6.423153E-2,1.07377425E-1,-4.8060197E-2,2.268943E-2,1.5518486E-1,-3.5001855E-2,-1.18402675E-1,3.4998488E-2,1.926652E-2,-1.2851502E-1,1.327949E-2,-1.0134399E-1,1.0742539E-1,1.027723E-2,-1.5211868E-2,-1.4913684E-1,7.866667E-2,-2.3569442E-2,1.7405981E-2,1.2774517E-1,8.776094E-2,-8.277813E-2,1.361996E-1,8.545988E-2,-8.9541934E-2,4.938321E-2,1.0418389E-1,-7.017354E-2],"categories":[],"categories_nodes":[],"categories_segments":[],"categories_sizes":[],"default_left":[0,0,0,0,0,0,0,0,0,0,0,0,0,0,0,0,0,0,0,0,0,0,0,0,0,0,0,0,0,0,0,0,0,0,0,0,0,0,0,0,0,0,0,0,0,0,0,0,0,0,0,0,0,0,0,0,0,0,0,0,0,0,0,0,0,0,0,0,0,0,0,0,0,0,0,0,0,0,0,0,0,0,0,0,0,0,0,0,0,0,0,0,0,0,0,0,0,0,0,0,0,0,0,0,0,0,0,0,0,0,0,0,0,0,0,0,0,0,0,0,0,0,0,0,0,0,0,0,0,0,0,0,0,0,0,0,0,0,0,0,0,0,0,0,0,0,0,0,0,0,0,0,0,0,0,0,0,0,0,0,0,0,0,0,0,0,0],"id":2,"left_children":[1,3,5,7,9,11,13,15,17,19,21,-1,23,25,27,29,31,33,35,37,39,-1,41,43,45,-1,47,-1,49,51,53,55,57,59,61,63,-1,65,-1,67,69,71,73,75,77,79,81,83,85,87,89,91,93,95,97,99,101,103,105,107,109,111,113,115,-1,117,119,121,123,125,127,129,131,133,135,137,139,141,143,145,147,149,151,153,155,157,-1,159,161,163,165,-1,-1,-1,-1,-1,-1,-1,-1,-1,-1,-1,-1,-1,-1,-1,-1,-1,-1,-1,-1,-1,-1,-1,-1,-1,-1,-1,-1,-1,-1,-1,-1,-1,-1,-1,-1,-1,-1,-1,-1,-1,-1,-1,-1,-1,-1,-1,-1,-1,-1,-1,-1,-1,-1,-1,-1,-1,-1,-1,-1,-1,-1,-1,-1,-1,-1,-1,-1,-1,-1,-1,-1,-1,-1,-1,-1],"loss_changes":[3.2946975E3,4.5838892E2,4.5124146E2,1.2208977E2,1.2530884E2,9.151425E1,2.2623047E1,1.120135E2,2.4063103E1,8.692554E1,4.7207527E1,0E0,1.24894104E2,1.8486485E1,1.4895996E1,5.129587E1,1.0680922E2,1.4275192E1,1.27987585E1,5.4871918E1,4.1185425E1,0E0,2.6718336E1,5.347867E1,5.4654884E1,0E0,8.984659E0,0E0,1.4106934E1,3.455558E1,6.2109276E1,3.1517284E1,1.2931244E1,8.05268E0,1.3129211E1,4.1152487E0,0E0,5.013025E1,0E0,5.2916626E1,2.2432983E1,1.657468E1,1.1622737E1,1.8078857E1,2.8169624E1,9.236771E0,1.4396902E1,7.5506005E0,1.6739979E0,1.3266357E1,1.334967E1,2.4661882E1,1.2988548E1,4.899495E1,1.3659363E1,5.832002E1,6.718201E1,9.76178E0,1.2844075E1,3.1921515E0,4.6402144E-1,6.3587112E0,1.3714542E1,1.2947521E0,0E0,2.4273163E1,2.7218475E1,1.3698123E2,1.0565247E1,2.1924175E1,1.1546181E1,5.760409E0,1.3240452E1,5.178707E0,1.5986404E1,1.3370079E1,8.822556E0,1.705304E1,9.013699E0,3.771637E0,1.4662724E1,1.5564963E1,7.540118E0,2.7070627E0,5.4001303E0,9.510956E-1,0E0,1.1634012E1,7.9084473E0,3.5099077E0,6.974373E0,0E0,0E0,0E0,0E0,0E0,0E0,0E0,0E0,0E0,0E0,0E0,0E0,0E0,0E0,0E0,0E0,0E0,0E0,0E0,0E0,0E0,0E0,0E0,0E0,0E0,0E0,0E0,0E0,0E0,0E0,0E0,0E0,0E0,0E0,0E0,0E0,0E0,0E0,0E0,0E0,0E0,0E0,0E0,0E0,0E0,0E0,0E0,0E0,0E0,0E0,0E0,0E0,0E0,0E0,0E0,0E0,0E0,0E0,0E0,0E0,0E0,0E0,0E0,0E0,0E0,0E0,0E0,0E0,0E0,0E0,0E0,0E0,0E0,0E0,0E0,0E0],"parents":[2147483647,0,0,1,1,2,2,3,3,4,4,5,5,6,6,7,7,8,8,9,9,10,10,12,12,13,13,14,14,15,15,16,16,17,17,18,18,19,19,20,20,22,22,23,23,24,24,26,26,28,28,29,29,30,30,31,31,32,32,33,33,34,34,35,35,37,37,39,39,40,40,41,41,42,42,43,43,44,44,45,45,46,46,47,47,48,48,49,49,50,50,51,51,52,52,53,53,54,54,55,55,56,56,57,57,58,58,59,59,60,60,61,61,62,62,63,63,65,65,66,66,67,67,68,68,69,69,70,70,71,71,72,72,73,73,74,74,75,75,76,76,77,77,78,78,79,79,80,80,81,81,82,82,83,83,84,84,85,85,87,87,88,88,89,89,90,90],"right_children":[2,4,6,8,10,12,14,16,18,20,22,-1,24,26,28,30,32,34,36,38,40,-1,42,44,46,-1,48,-1,50,52,54,56,58,60,62,64,-1,66,-1,68,70,72,74,76,78,80,82,84,86,88,90,92,94,96,98,100,102,104,106,108,110,112,114,116,-1,118,120,122,124,126,128,130,132,134,136,138,140,142,144,146,148,150,152,154,156,158,-1,160,162,164,166,-1,-1,-1,-1,-1,-1,-1,-1,-1,-1,-1,-1,-1,-1,-1,-1,-1,-1,-1,-1,-1,-1,-1,-1,-1,-1,-1,-1,-1,-1,-1,-1,-1,-1,-1,-1,-1,-1,-1,-1,-1,-1,-1,-1,-1,-1,-1,-1,-1,-1,-1,-1,-1,-1,-1,-1,-1,-1,-1,-1,-1,-1,-1,-1,-1,-1,-1,-1,-1,-1,-1,-1,-1,-1,-1,-1],"split_conditions":[2.5805384E-2,-3.1904867E-1,9.155191E-1,8.197903E-1,2.0495011E-1,9.047122E-1,-6.400955E-1,-5.1670426E-1,1.574625E0,2.5033882E-1,1.8099213E0,1.6582833E-1,-2.5665376E-1,1.7945639E0,1.7945639E0,-2.9303342E-1,-6.763978E-1,-6.662485E-1,-1.1342891E-1,2.0654756E-1,2.246683E0,1.8168603E-1,-1.8135422E-1,-2.8890654E-1,1.321805E0,1.5833728E-1,-5.442389E-1,1.672019E-1,1.8752643E-1,-3.1465188E-1,4.818331E-1,-9.0398353E-1,3.8829505E-1,1.0781522E0,-1.7018579E-1,-1.9951005E-1,1.1401534E-1,-4.006402E-2,1.7068674E-1,1.4860523E-2,2.3162583E-1,-6.223685E-1,-2.5543925E-1,2.0495011E-1,2.1673465E0,2.4594484E-1,1.4443786E0,-2.9303342E-1,-2.1438931E-1,-1.4547888E0,-1.3469637E-2,1.254183E0,2.0495011E-1,-2.714438E-1,-6.7218953E-1,-9.0549827E-1,-8.284243E-1,3.10979E-1,-2.2952107E-1,-2.5238892E-1,-6.4059234E-1,-5.2670117E-2,-1.799499E-1,-1.2321035E0,3.2017592E-2,-6.771748E-1,9.072452E-1,-8.621342E-1,4.818331E-1,1.4589259E-1,5.245912E-1,-6.821971E-1,-1.4761683E-1,4.9675798E-1,-2.0482048E-1,-3.421935E-2,-3.4170914E-1,-8.037537E-1,-6.6679645E-1,2.05588E-1,-6.520171E-1,1.6444445E-1,-8.4078304E-2,-6.442218E-1,-6.506638E-1,-5.1452076E-1,1.2431589E-2,-1.8711603E-1,3.5742671E0,3.333944E-1,3.0375178E0,-1.7038306E-2,6.31147E-2,-7.0271194E-2,1.9356556E-2,8.4678225E-2,1.5883978E-2,-7.205809E-2,-1.2206699E-2,-2.551707E-3,-7.1638145E-2,1.803773E-1,-1.465866E-2,-1.1064763E-1,-2.3354558E-2,7.213557E-2,-1.2835582E-1,-1.4177251E-1,-1.9004522E-2,1.1810948E-1,2.0743132E-2,1.2878177E-1,6.847908E-2,3.3191204E-2,1.396342E-1,-5.7012655E-2,-1.555532E-1,-7.001931E-2,-3.5715934E-2,-1.0780076E-1,-5.5081733E-2,-9.2852645E-2,1.8140085E-1,-1.0434933E-1,-1.3807218E-1,-7.7259235E-2,5.010618E-2,-6.341743E-2,-1.4735769E-1,3.9405085E-2,-1.2728602E-1,9.199195E-2,-6.723524E-2,-4.9606018E-2,-1.2681606E-1,1.05490044E-1,-4.1658275E-2,6.0010172E-2,-7.305501E-2,6.423153E-2,1.07377425E-1,-4.8060197E-2,2.268943E-2,1.5518486E-1,-3.5001855E-2,-1.18402675E-1,3.4998488E-2,1.926652E-2,-1.2851502E-1,1.327949E-2,-1.0134399E-1,1.0742539E-1,1.027723E-2,-1.5211868E-2,-1.4913684E-1,7.866667E-2,-2.3569442E-2,1.7405981E-2,1.2774517E-1,8.776094E-2,-8.277813E-2,1.361996E-1,8.545988E-2,-8.9541934E-2,4.938321E-2,1.0418389E-1,-7.017354E-2],"split_indices":[3,21,3,6,5,3,22,9,2,0,5,0,21,3,3,20,0,11,22,0,9,0,18,0,4,0,5,0,21,15,0,0,8,2,16,20,0,15,0,3,15,11,16,5,2,18,7,20,17,2,13,0,5,20,11,0,0,11,15,16,22,2,18,1,0,2,9,3,0,15,16,9,16,2,16,18,15,2,11,22,10,21,1,22,13,21,0,14,3,18,15,0,0,0,0,0,0,0,0,0,0,0,0,0,0,0,0,0,0,0,0,0,0,0,0,0,0,0,0,0,0,0,0,0,0,0,0,0,0,0,0,0,0,0,0,0,0,0,0,0,0,0,0,0,0,0,0,0,0,0,0,0,0,0,0,0,0,0,0,0,0,0,0,0,0,0,0],"split_type":[0,0,0,0,0,0,0,0,0,0,0,0,0,0,0,0,0,0,0,0,0,0,0,0,0,0,0,0,0,0,0,0,0,0,0,0,0,0,0,0,0,0,0,0,0,0,0,0,0,0,0,0,0,0,0,0,0,0,0,0,0,0,0,0,0,0,0,0,0,0,0,0,0,0,0,0,0,0,0,0,0,0,0,0,0,0,0,0,0,0,0,0,0,0,0,0,0,0,0,0,0,0,0,0,0,0,0,0,0,0,0,0,0,0,0,0,0,0,0,0,0,0,0,0,0,0,0,0,0,0,0,0,0,0,0,0,0,0,0,0,0,0,0,0,0,0,0,0,0,0,0,0,0,0,0,0,0,0,0,0,0,0,0,0,0,0,0],"sum_hessian":[7.39765E3,4.923051E3,2.4745989E3,2.1779229E3,2.7451282E3,1.0561167E3,1.4184823E3,1.9788043E3,1.9911847E2,2.597725E3,1.4740306E2,5.841219E1,9.9770447E2,4.9400246E1,1.369082E3,1.1224346E3,8.563698E2,1.8517027E2,1.3948209E1,1.3370098E3,1.2607153E3,1.4363576E1,1.3303947E2,8.1060535E2,1.8709914E2,1.3564345E1,3.58359E1,1.3436375E2,1.2347183E3,4.4110486E2,6.813297E2,5.982332E2,2.581366E2,1.0958933E1,1.7421133E2,1.1456215E1,2.491994E0,1.3278027E3,9.206989E0,1.0694485E3,1.9126677E2,5.423849E1,7.8800995E1,5.109398E2,2.9966556E2,8.660745E1,1.0049169E2,2.517459E1,1.0661311E1,1.157328E3,7.739024E1,2.7109097E2,1.7001389E2,5.240336E2,1.5729605E2,4.9035788E2,1.0787533E2,2.4620224E2,1.1934363E1,8.221294E0,2.7376392E0,8.485596E1,8.935538E1,9.964816E0,1.4913987E0,8.799486E2,4.4785416E2,5.5034814E2,5.191004E2,5.4503536E1,1.3676323E2,7.943253E0,4.6295235E1,4.719578E1,3.1605211E1,2.6827917E2,2.426606E2,2.7914313E2,2.0522432E1,6.03583E1,2.624915E1,6.783809E1,3.2653603E1,5.9741497E0,1.920044E1,8.4316635E0,2.2296476E0,2.24743E1,1.1348538E3,6.384976E0,7.100527E1,2.2588347E2,4.5207493E1,1.5236401E2,1.764988E1,1.4123792E2,3.8279575E2,6.417813E1,9.311792E1,2.630593E2,2.2729858E2,2.1137781E1,8.673754E1,2.3199939E2,1.420285E1,7.971421E0,3.9629426E0,3.7378147E0,4.4834795E0,1.4907234E0,1.2469158E0,5.233791E1,3.2518047E1,7.566161E1,1.3693762E1,3.7324307E0,6.232385E0,3.3632974E2,5.436189E2,2.9621295E2,1.5164119E2,5.3239294E2,1.795519E1,1.5037141E2,3.68729E2,2.13773E1,3.3126236E1,1.1764176E2,1.9121462E1,2.4833148E0,5.4599385E0,4.106305E1,5.232188E0,3.528402E1,1.1911762E1,9.958628E0,2.1646582E1,2.6131516E2,6.964015E0,7.441088E1,1.6824973E2,3.8709568E1,2.4043356E2,1.8032438E1,2.4899936E0,5.9124958E1,1.2333423E0,1.5896409E1,1.035274E1,5.369935E1,1.413874E1,1.8935907E1,1.3717695E1,2.73378E0,3.24037E0,8.2206E0,1.0979838E1,1.247499E0,7.184164E0,1.8273949E1,4.200352E0,1.0967643E3,3.8089447E1,4.4249883E0,1.9599873E0,6.929189E1,1.7133795E0],"tree_param":{"num_deleted":"0","num_feature":"23","num_nodes":"167","size_leaf_vector":"1"}},{"base_weights":[-1.4158592E-3,-4.316915E-1,8.6651856E-1,-1.1129927E-1,-6.844925E-1,4.1183808E-1,1.2110251E0,2.6053184E-1,-2.4684902E-1,-2.611727E-1,-7.706001E-1,1.5538982E-1,3.458041E-1,5.6539184E-1,1.2384576E0,-3.2524694E-2,1.4948931E0,2.5361376E-2,-5.567806E-1,-3.4390464E-1,1.7625782E-1,-8.078657E-1,4.552245E-2,4.9579778E-1,-3.0440623E-1,1.4954291E-1,2.1312109E-1,1.566684E-1,1.2022365E0,1.9075173E-1,-6.4595675E-1,1.6106256E0,6.726495E-1,-2.1810334E-2,1.7313753E-1,-4.1144755E-1,-1.0687264E0,-1.22444905E-1,-6.87416E-1,-7.4477375E-1,-1.0948869E0,1.6582039E-1,-1.8291055E-1,7.30469E-1,2.7295443E-1,-8.348304E-1,1.2908581E-1,7.228874E-2,1.1373816E0,1.244144E0,9.631258E-1,-1.3819283E-1,1.8906146E-1,-1.0325999E0,-3.6804816E-1,-2.552783E-3,1.6455745E0,-1.7532031E-1,1.4466728E0,-2.8027055E-1,1.703646E-1,-5.061184E-1,4.6276167E-1,-1.1692933E0,-5.4655516E-1,-3.45178E-1,3.2955942E-1,-3.5147876E-1,-9.134922E-1,-5.67125E-1,-8.5019886E-1,-5.720894E-1,-1.2181252E0,-8.480912E-1,9.559918E-3,4.996338E-1,9.306153E-1,2.202354E-1,1.3299778E0,5.4766035E-1,-8.877627E-1,-1.0557816E-1,5.8946997E-1,1.8959564E-1,-1.1613186E-1,1.3914353E-2,1.385834E-1,1.2637159E0,6.697073E-1,-4.26938E-1,1.0192804E0,6.3178495E-2,-4.4893473E-2,-4.5267787E-2,-1.3543352E-1,-1.55612705E-2,-9.261131E-2,1.6709775E-1,4.1653153E-2,-7.301457E-2,1.1983653E-1,1.5457742E-1,4.8233952E-2,1.1243242E-2,-5.6554664E-2,2.6120424E-2,-3.6225464E-2,-1.2817064E-1,-4.535301E-2,-1.2173383E-2,7.330783E-2,-8.2077794E-2,-1.4005284E-1,-6.267418E-3,-1.3830917E-1,-5.114566E-2,3.1118358E-2,1.9921441E-1,-1.9176146E-2,-7.402631E-2,2.19345E-2,-1.06952004E-1,-4.3779343E-2,-6.295194E-2,1.9648628E-1,-8.865487E-2,2.311131E-4,-9.8868094E-2,-1.9647984E-2,-1.3531274E-1,-6.5973796E-2,-1.1368574E-1,-3.324654E-3,3.340008E-2,-6.760786E-2,5.6716453E-2,-5.2507814E-2,6.575914E-2,1.0854248E-1,3.9228182E-2,3.1257577E-3,1.5978001E-1,-1.8715825E-3,-5.1544394E-2,1.2789835E-1,-1.1158166E-1,-5.7271387E-2,1.0034571E-2,-1.1163538E-1,1.1436055E-1,1.480383E-2,9.16748E-3,1.1740386E-1,6.2312525E-2,1.2783413E-1,-2.3542332E-2,1.0440876E-1,4.1344926E-2,-9.4268225E-2,1.0559739E-1,-4.1899156E-2],"categories":[],"categories_nodes":[],"categories_segments":[],"categories_sizes":[],"default_left":[0,0,0,0,0,0,0,0,0,0,0,0,0,0,0,0,0,0,0,0,0,0,0,0,0,0,0,0,0,0,0,0,0,0,0,0,0,0,0,0,0,0,0,0,0,0,0,0,0,0,0,0,0,0,0,0,0,0,0,0,0,0,0,0,0,0,0,0,0,0,0,0,0,0,0,0,0,0,0,0,0,0,0,0,0,0,0,0,0,0,0,0,0,0,0,0,0,0,0,0,0,0,0,0,0,0,0,0,0,0,0,0,0,0,0,0,0,0,0,0,0,0,0,0,0,0,0,0,0,0,0,0,0,0,0,0,0,0,0,0,0,0,0,0,0,0,0,0,0,0,0,0,0,0,0,0,0,0,0,0,0],"id":3,"left_children":[1,3,5,7,9,11,13,15,17,19,21,-1,23,25,27,29,31,33,35,37,-1,39,41,43,45,-1,47,-1,49,51,53,55,57,59,-1,61,63,65,67,69,71,-1,73,75,77,79,81,83,85,87,89,91,-1,93,95,-1,97,99,101,103,105,107,109,111,113,115,117,119,121,123,125,127,129,131,133,135,137,139,141,143,145,147,149,151,-1,-1,-1,153,155,157,159,-1,-1,-1,-1,-1,-1,-1,-1,-1,-1,-1,-1,-1,-1,-1,-1,-1,-1,-1,-1,-1,-1,-1,-1,-1,-1,-1,-1,-1,-1,-1,-1,-1,-1,-1,-1,-1,-1,-1,-1,-1,-1,-1,-1,-1,-1,-1,-1,-1,-1,-1,-1,-1,-1,-1,-1,-1,-1,-1,-1,-1,-1,-1,-1,-1,-1,-1,-1,-1,-1],"loss_changes":[2.7261665E3,3.9521887E2,3.7848816E2,1.08612755E2,9.922925E1,7.823189E1,2.367041E1,2.0835596E2,1.332136E2,7.8056274E1,6.895935E1,0E0,9.6573906E1,1.8657974E1,1.3798462E1,6.399617E1,9.432449E0,6.775934E1,5.4491837E1,3.3788055E1,0E0,3.843152E1,3.7107872E1,4.1831833E1,4.2862083E1,0E0,5.5378265E0,0E0,1.0749023E1,1.9187036E2,1.3016216E1,5.5403137E0,1.0329908E1,4.0769962E1,0E0,4.7961395E1,7.900711E0,2.7491499E1,1.291777E1,3.2852234E1,2.432904E1,0E0,1.1327229E1,1.759407E1,2.2769142E1,6.6152763E0,1.1209981E1,5.796601E0,1.2062464E0,1.052063E1,1.4659576E1,6.920247E1,0E0,9.011345E0,8.639424E0,0E0,2.243744E0,7.138356E0,3.175354E-2,3.927491E1,2.287578E1,2.0660843E1,9.07473E0,9.768875E0,1.1303831E1,2.0094355E1,7.8630714E1,1.6084743E1,7.2189636E0,1.0643344E2,3.4553894E1,1.1695171E1,2.2736023E1,4.6333914E0,1.5699251E1,1.3008602E1,8.086075E0,1.2843067E1,7.059742E0,3.5413446E0,5.184128E0,1.4514689E1,8.389657E0,3.3673475E0,0E0,0E0,0E0,8.353027E0,1.22551775E1,3.761979E0,9.701675E0,0E0,0E0,0E0,0E0,0E0,0E0,0E0,0E0,0E0,0E0,0E0,0E0,0E0,0E0,0E0,0E0,0E0,0E0,0E0,0E0,0E0,0E0,0E0,0E0,0E0,0E0,0E0,0E0,0E0,0E0,0E0,0E0,0E0,0E0,0E0,0E0,0E0,0E0,0E0,0E0,0E0,0E0,0E0,0E0,0E0,0E0,0E0,0E0,0E0,0E0,0E0,0E0,0E0,0E0,0E0,0E0,0E0,0E0,0E0,0E0,0E0,0E0,0E0,0E0,0E0,0E0,0E0,0E0,0E0,0E0],"parents":[2147483647,0,0,1,1,2,2,3,3,4,4,5,5,6,6,7,7,8,8,9,9,10,10,12,12,13,13,14,14,15,15,16,16,17,17,18,18,19,19,21,21,22,22,23,23,24,24,26,26,28,28,29,29,30,30,31,31,32,32,33,33,35,35,36,36,37,37,38,38,39,39,40,40,42,42,43,43,44,44,45,45,46,46,47,47,48,48,49,49,50,50,51,51,53,53,54,54,56,56,57,57,58,58,59,59,60,60,61,61,62,62,63,63,64,64,65,65,66,66,67,67,68,68,69,69,70,70,71,71,72,72,73,73,74,74,75,75,76,76,77,77,78,78,79,79,80,80,81,81,82,82,83,83,87,87,88,88,89,89,90,90],"right_children":[2,4,6,8,10,12,14,16,18,20,22,-1,24,26,28,30,32,34,36,38,-1,40,42,44,46,-1,48,-1,50,52,54,56,58,60,-1,62,64,66,68,70,72,-1,74,76,78,80,82,84,86,88,90,92,-1,94,96,-1,98,100,102,104,106,108,110,112,114,116,118,120,122,124,126,128,130,132,134,136,138,140,142,144,146,148,150,152,-1,-1,-1,154,156,158,160,-1,-1,-1,-1,-1,-1,-1,-1,-1,-1,-1,-1,-1,-1,-1,-1,-1,-1,-1,-1,-1,-1,-1,-1,-1,-1,-1,-1,-1,-1,-1,-1,-1,-1,-1,-1,-1,-1,-1,-1,-1,-1,-1,-1,-1,-1,-1,-1,-1,-1,-1,-1,-1,-1,-1,-1,-1,-1,-1,-1,-1,-1,-1,-1,-1,-1,-1,-1,-1,-1],"split_conditions":[2.5805384E-2,-3.1904867E-1,9.155191E-1,-9.0549827E-1,-6.7427635E-1,9.047122E-1,-6.3756615E-1,-1.0570058E0,1.4860523E-2,-7.3989165E-1,2.0495011E-1,1.5538982E-1,-2.490913E-1,1.7945639E0,1.7945639E0,-1.0596461E0,-1.3997667E-1,-8.621342E-1,-2.275253E-1,-1.2678394E-1,1.7625782E-1,1.4837947E0,1.8099213E0,-6.7427635E-1,1.321805E0,1.4954291E-1,-2.2532424E-1,1.566684E-1,-7.436529E-2,-1.1325033E0,-4.4447514E-1,-6.9205654E-1,8.197903E-1,-3.1367806E-1,1.7313753E-1,8.197903E-1,-1.9141103E-1,-9.0398353E-1,-1.9674583E-1,7.887726E-1,-6.392781E-1,1.6582039E-1,-1.8198575E-1,2.0495011E-1,2.3340294E0,-6.5579325E-1,1.4443786E0,-4.204442E-1,-7.263838E-1,3.5742671E0,-4.0375984E-1,-1.1367202E0,1.8906146E-1,-8.4042504E-2,-2.2406872E-1,-2.552783E-3,-1.3050064E-1,-9.721736E-1,-1.8207201E-1,-5.0753057E-1,-3.6252838E-1,-6.269981E-1,-9.0398353E-1,2.5033882E-1,-1.943401E-1,-1.6480397E-1,-8.284243E-1,-2.5576105E-2,4.977197E-2,-1.2321035E0,3.8829505E-1,1.9462384E0,2.6469836E0,1.0691523E-1,-6.0052006E-3,-9.212118E-3,-2.9628584E-1,-6.4756477E-1,-6.9666344E-1,-6.698217E-1,-4.5517776E-2,2.635502E-1,-8.574845E-2,1.5066795E0,-1.1613186E-1,1.3914353E-2,1.385834E-1,-1.4547888E0,-2.9303342E-1,-2.1354425E-1,2.0085704E0,6.3178495E-2,-4.4893473E-2,-4.5267787E-2,-1.3543352E-1,-1.55612705E-2,-9.261131E-2,1.6709775E-1,4.1653153E-2,-7.301457E-2,1.1983653E-1,1.5457742E-1,4.8233952E-2,1.1243242E-2,-5.6554664E-2,2.6120424E-2,-3.6225464E-2,-1.2817064E-1,-4.535301E-2,-1.2173383E-2,7.330783E-2,-8.2077794E-2,-1.4005284E-1,-6.267418E-3,-1.3830917E-1,-5.114566E-2,3.1118358E-2,1.9921441E-1,-1.9176146E-2,-7.402631E-2,2.19345E-2,-1.06952004E-1,-4.3779343E-2,-6.295194E-2,1.9648628E-1,-8.865487E-2,2.311131E-4,-9.8868094E-2,-1.9647984E-2,-1.3531274E-1,-6.5973796E-2,-1.1368574E-1,-3.324654E-3,3.340008E-2,-6.760786E-2,5.6716453E-2,-5.2507814E-2,6.575914E-2,1.0854248E-1,3.9228182E-2,3.1257577E-3,1.5978001E-1,-1.8715825E-3,-5.1544394E-2,1.2789835E-1,-1.1158166E-1,-5.7271387E-2,1.0034571E-2,-1.1163538E-1,1.1436055E-1,1.480383E-2,9.16748E-3,1.1740386E-1,6.2312525E-2,1.2783413E-1,-2.3542332E-2,1.0440876E-1,4.1344926E-2,-9.4268225E-2,1.0559739E-1,-4.1899156E-2],"split_indices":[3,21,3,0,0,3,22,0,3,0,5,0,21,3,3,0,12,3,0,16,0,0,5,0,4,0,14,0,21,0,14,9,6,19,0,6,19,0,21,1,10,0,19,5,2,14,7,14,22,3,14,0,0,3,12,0,17,0,17,21,21,10,0,0,17,16,0,2,17,1,8,0,13,18,18,9,17,7,5,13,18,21,16,20,0,0,0,2,20,16,2,0,0,0,0,0,0,0,0,0,0,0,0,0,0,0,0,0,0,0,0,0,0,0,0,0,0,0,0,0,0,0,0,0,0,0,0,0,0,0,0,0,0,0,0,0,0,0,0,0,0,0,0,0,0,0,0,0,0,0,0,0,0,0,0,0,0,0,0,0,0],"split_type":[0,0,0,0,0,0,0,0,0,0,0,0,0,0,0,0,0,0,0,0,0,0,0,0,0,0,0,0,0,0,0,0,0,0,0,0,0,0,0,0,0,0,0,0,0,0,0,0,0,0,0,0,0,0,0,0,0,0,0,0,0,0,0,0,0,0,0,0,0,0,0,0,0,0,0,0,0,0,0,0,0,0,0,0,0,0,0,0,0,0,0,0,0,0,0,0,0,0,0,0,0,0,0,0,0,0,0,0,0,0,0,0,0,0,0,0,0,0,0,0,0,0,0,0,0,0,0,0,0,0,0,0,0,0,0,0,0,0,0,0,0,0,0,0,0,0,0,0,0,0,0,0,0,0,0,0,0,0,0,0,0],"sum_hessian":[7.297928E3,4.8794565E3,2.418472E3,2.15267E3,2.7267866E3,1.04348E3,1.3749918E3,5.74852E2,1.5778179E3,4.615854E2,2.2652014E3,5.5804684E1,9.8767535E2,5.692197E1,1.3180698E3,4.653454E2,1.0950658E2,8.405169E2,7.37301E2,4.4425412E2,1.7331259E1,2.1662947E3,9.890664E1,8.027342E2,1.8494118E2,1.4745901E1,4.217607E1,1.2679871E2,1.1912711E3,3.4167273E2,1.23672676E2,9.515456E1,1.4352022E1,8.1886237E2,2.1654531E1,5.756789E2,1.616221E2,2.7093826E2,1.7331586E2,1.7788658E3,3.8742886E2,1.1495087E1,8.741155E1,3.8988126E2,4.128529E2,8.275532E1,1.0218587E2,3.7534966E1,4.6411037E0,1.0100437E3,1.812274E2,2.870447E2,5.462801E1,5.058298E1,7.308969E1,1.9956697E0,9.315888E1,7.217973E0,7.1340485E0,3.4901123E2,4.6985114E2,5.198083E2,5.587062E1,1.3448238E2,2.713973E1,1.8165897E2,8.927931E1,7.074589E1,1.0256996E2,6.648784E2,1.1139874E3,7.498256E1,3.1244632E2,1.8852097E1,6.8559456E1,1.8268317E2,2.0719809E2,3.9439102E2,1.8461891E1,2.707011E0,8.00483E1,6.819608E1,3.398978E1,3.5048428E1,2.486538E0,1.2358238E0,3.4052799E0,9.756035E2,3.4440205E1,6.78042E0,1.7444698E2,8.2237595E1,2.0480711E2,1.8908228E1,3.1674751E1,5.386431E1,1.9225382E1,9.092009E1,2.2387934E0,5.475087E0,1.7428861E0,5.922471E0,1.2115777E0,1.4710986E2,2.0190137E2,4.0182788E2,6.802324E1,3.1523165E1,4.8828513E2,1.7841743E1,3.8028877E1,5.5453278E1,7.902909E1,1.7875093E1,9.264637E0,1.4511674E2,3.6542213E1,2.0638414E1,6.86409E1,4.1906693E1,2.8839201E1,7.6296585E1,2.6273373E1,6.496216E2,1.5256872E1,1.0683927E3,4.5594704E1,3.47779E1,4.0204655E1,2.5046718E2,6.1979126E1,1.3627554E1,5.2245426E0,4.688606E1,2.1673399E1,1.718072E2,1.0875961E1,7.687251E1,1.3032558E2,2.0588052E2,1.885105E2,1.5249046E1,3.212845E0,1.2235541E0,1.4834569E0,4.4960854E1,3.5087452E1,5.7402313E1,1.0793768E1,1.4365674E1,1.9624107E1,3.2871845E1,2.1765823E0,2.2750076E1,9.5285345E2,1.0185681E1,2.4254524E1,2.6540623E0,4.1263576E0,1.7036636E2,4.0806084E0],"tree_param":{"num_deleted":"0","num_feature":"23","num_nodes":"161","size_leaf_vector":"1"}},{"base_weights":[-7.8905676E-4,-3.850691E-1,7.84469E-1,-1.2154315E-1,-6.361452E-1,3.5423324E-1,1.1216173E0,2.3511302E-1,-2.436229E-1,-5.0133604E-1,-8.847557E-1,1.4699538E-1,2.938291E-1,1.4855288E-1,1.0801576E0,-2.87902E-2,1.3743838E0,-1.5303683E-2,-4.8044235E-1,-5.167197E-1,2.0883708E-1,-9.816638E-1,-4.7900978E-1,4.3309128E-1,-3.123459E-1,1.09025985E-1,1.1037112E0,1.959986E-1,-6.1616397E-1,1.5028692E0,4.4246605E-1,-6.230656E-2,1.642171E-1,-2.8885514E-1,-8.737571E-1,-5.672823E-1,1.7904298E-1,-7.370832E-1,-1.1838237E0,-3.563352E-1,-1.2438023E0,7.944744E-1,2.7441657E-1,-7.83423E-1,6.1377294E-2,-4.2829758E-1,6.0682166E-1,1.1134522E0,2.7362207E-1,-1.2651852E-1,1.760803E-1,-9.7052085E-1,-3.748839E-1,-2.8607238E-3,1.5265781E0,-4.9226797E-1,1.1023141E0,-1.22489594E-1,6.0961163E-1,-6.045107E-1,4.6730027E-2,-9.6250933E-1,1.2706752E-1,-3.5212702E-1,-7.155918E-1,-8.238324E-1,2.979608E-1,-1.1406069E0,-5.863865E-1,-1.2030984E0,-1.1651445E-1,-4.2820233E-1,6.95467E-1,-1.3944201E0,2.9476753E-2,6.095324E-1,1.4247745E0,1.8145107E-1,6.0589564E-1,-4.977485E-1,-1.1477699E0,-4.445849E-1,1.8101071E-1,-1.7436316E-3,-1.3319513E-1,-8.015619E-2,8.102894E-1,1.128395E0,6.2282455E-1,-1.5276194E-1,1.1820425E-1,4.335385E-2,-3.586211E-2,-1.1007165E-1,3.737351E-3,-1.4846918E-2,-9.101166E-2,1.7482407E-1,1.3114502E-1,-1.0042479E-1,1.0455878E-1,8.47265E-3,1.3592479E-1,-4.5326725E-3,-5.009525E-2,8.151052E-2,-1.4220877E-1,-8.627126E-2,-3.3012066E-2,1.7603421E-1,-1.760033E-2,-6.5080926E-2,-1.0434117E-1,6.354616E-2,-7.700264E-2,-6.791654E-2,-2.1339996E-2,-1.4734252E-1,-6.367614E-2,-1.0600728E-1,3.6415376E-2,-4.1706115E-3,6.275344E-2,-4.2941846E-2,-1.36301E-1,1.8966937E-1,-6.388657E-2,-1.0819353E-1,-1.3739966E-1,6.458348E-2,-9.9626206E-2,-3.69011E-2,-1.4802891E-1,1.5795802E-1,8.220371E-3,-1.052988E-2,-1.4802949E-1,6.451278E-2,-6.7516655E-2,1.4713229E-1,1.9643452E-2,-5.6731142E-2,2.6322668E-2,4.8207186E-2,1.2843184E-1,-8.914347E-2,1.9044286E-2,7.37116E-2,-1.2640938E-1,8.9414045E-2,-7.045717E-2,1.2252597E-1,3.4890566E-3,-3.3751648E-2,1.0651056E-1,2.9511327E-2,1.1938485E-1,1.1608962E-1,8.5644074E-2,-1.05767705E-1,7.602093E-2,-6.0712017E-2,1.16187766E-1],"categories":[],"categories_nodes":[],"categories_segments":[],"categories_sizes":[],"default_left":[0,0,0,0,0,0,0,0,0,0,0,0,0,0,0,0,0,0,0,0,0,0,0,0,0,0,0,0,0,0,0,0,0,0,0,0,0,0,0,0,0,0,0,0,0,0,0,0,0,0,0,0,0,0,0,0,0,0,0,0,0,0,0,0,0,0,0,0,0,0,0,0,0,0,0,0,0,0,0,0,0,0,0,0,0,0,0,0,0,0,0,0,0,0,0,0,0,0,0,0,0,0,0,0,0,0,0,0,0,0,0,0,0,0,0,0,0,0,0,0,0,0,0,0,0,0,0,0,0,0,0,0,0,0,0,0,0,0,0,0,0,0,0,0,0,0,0,0,0,0,0,0,0,0,0,0,0,0,0,0,0,0,0],"id":4,"left_children":[1,3,5,7,9,11,13,15,17,19,21,-1,23,-1,25,27,29,31,33,35,-1,37,39,41,43,45,47,49,51,53,55,57,-1,59,61,63,65,67,69,71,73,75,77,79,81,83,85,87,89,91,-1,93,95,-1,97,99,101,103,105,107,109,111,113,115,117,119,121,123,125,127,129,131,133,135,-1,137,139,141,143,145,147,149,151,153,-1,-1,155,157,159,161,-1,-1,-1,-1,-1,-1,-1,-1,-1,-1,-1,-1,-1,-1,-1,-1,-1,-1,-1,-1,-1,-1,-1,-1,-1,-1,-1,-1,-1,-1,-1,-1,-1,-1,-1,-1,-1,-1,-1,-1,-1,-1,-1,-1,-1,-1,-1,-1,-1,-1,-1,-1,-1,-1,-1,-1,-1,-1,-1,-1,-1,-1,-1,-1,-1,-1,-1,-1,-1,-1,-1,-1,-1],"loss_changes":[2.179527E3,3.2079236E2,3.4384412E2,1.0313243E2,8.278052E1,6.993591E1,1.8463135E1,1.8169394E2,9.538095E1,6.5316376E1,3.3807983E1,0E0,8.385601E1,0E0,2.7275757E1,6.502083E1,1.2943756E1,7.015756E1,6.49984E1,5.651895E1,0E0,3.387451E1,1.5508652E1,4.6050964E1,3.2769024E1,8.142666E0,9.149658E0,1.8001306E2,1.1288681E1,3.655243E0,9.91055E0,3.5473892E1,0E0,6.186761E1,2.5272568E1,4.7462097E1,1.3293518E1,1.8830368E1,7.7407837E0,1.1479382E1,5.764374E0,2.7768143E1,1.7215729E1,7.994137E0,6.4098506E0,5.686609E0,5.1518955E0,7.767456E0,5.9470134E0,3.867219E1,0E0,7.2030487E0,9.888039E0,0E0,2.3789215E0,6.54285E0,2.2933464E0,2.3464428E1,3.1273422E1,2.1032936E1,1.0866279E2,5.88237E0,1.1410981E1,2.7626022E1,5.1882782E1,3.7155762E0,1.1057813E1,1.3038208E1,3.1903358E1,6.3029785E0,5.9436407E0,8.115009E0,5.2063913E0,2.192772E0,0E0,9.2009735E0,2.8547058E0,2.7122063E1,9.689648E0,1.3145283E1,8.693665E0,7.690413E0,1.2969818E1,4.3097625E0,0E0,0E0,2.458705E0,8.905151E0,9.203311E0,7.286295E0,0E0,0E0,0E0,0E0,0E0,0E0,0E0,0E0,0E0,0E0,0E0,0E0,0E0,0E0,0E0,0E0,0E0,0E0,0E0,0E0,0E0,0E0,0E0,0E0,0E0,0E0,0E0,0E0,0E0,0E0,0E0,0E0,0E0,0E0,0E0,0E0,0E0,0E0,0E0,0E0,0E0,0E0,0E0,0E0,0E0,0E0,0E0,0E0,0E0,0E0,0E0,0E0,0E0,0E0,0E0,0E0,0E0,0E0,0E0,0E0,0E0,0E0,0E0,0E0,0E0,0E0,0E0,0E0,0E0,0E0,0E0,0E0,0E0],"parents":[2147483647,0,0,1,1,2,2,3,3,4,4,5,5,6,6,7,7,8,8,9,9,10,10,12,12,14,14,15,15,16,16,17,17,18,18,19,19,21,21,22,22,23,23,24,24,25,25,26,26,27,27,28,28,29,29,30,30,31,31,33,33,34,34,35,35,36,36,37,37,38,38,39,39,40,40,41,41,42,42,43,43,44,44,45,45,46,46,47,47,48,48,49,49,51,51,52,52,54,54,55,55,56,56,57,57,58,58,59,59,60,60,61,61,62,62,63,63,64,64,65,65,66,66,67,67,68,68,69,69,70,70,71,71,72,72,73,73,75,75,76,76,77,77,78,78,79,79,80,80,81,81,82,82,83,83,86,86,87,87,88,88,89,89],"right_children":[2,4,6,8,10,12,14,16,18,20,22,-1,24,-1,26,28,30,32,34,36,-1,38,40,42,44,46,48,50,52,54,56,58,-1,60,62,64,66,68,70,72,74,76,78,80,82,84,86,88,90,92,-1,94,96,-1,98,100,102,104,106,108,110,112,114,116,118,120,122,124,126,128,130,132,134,136,-1,138,140,142,144,146,148,150,152,154,-1,-1,156,158,160,162,-1,-1,-1,-1,-1,-1,-1,-1,-1,-1,-1,-1,-1,-1,-1,-1,-1,-1,-1,-1,-1,-1,-1,-1,-1,-1,-1,-1,-1,-1,-1,-1,-1,-1,-1,-1,-1,-1,-1,-1,-1,-1,-1,-1,-1,-1,-1,-1,-1,-1,-1,-1,-1,-1,-1,-1,-1,-1,-1,-1,-1,-1,-1,-1,-1,-1,-1,-1,-1,-1,-1,-1,-1],"split_conditions":[2.5805384E-2,-2.9019168E-1,9.155191E-1,-9.0549827E-1,5.589071E-1,9.047122E-1,1.7945639E0,-1.0570058E0,1.4860523E-2,4.952394E-1,2.3825693E0,1.4699538E-1,-2.5665376E-1,1.4855288E-1,-6.842885E-1,-1.0596461E0,-9.8400995E-2,-8.621342E-1,-5.201284E-1,3.8829505E-1,2.0883708E-1,-4.2585304E-1,5.245912E-1,-9.0549827E-1,1.321805E0,6.501177E-2,9.1894E-1,-1.1325033E0,-4.3915015E-1,-6.9205654E-1,8.197903E-1,6.1555624E-1,1.642171E-1,-9.0398353E-1,8.197903E-1,-1.2641129E-1,-9.0398353E-1,-1.2375429E0,8.535976E0,3.3170915E0,5.258248E0,-1.0570058E0,-3.0597493E-1,-1.2417627E-1,-2.2803831E-1,-3.074637E-1,-1.2375429E0,3.5742671E0,4.699537E-1,-1.1367202E0,1.760803E-1,-1.9470048E-1,-2.1526758E-1,-2.8607238E-3,-9.825722E-1,-9.721736E-1,-1.2479648E-1,-6.327753E-1,8.6720294E-1,-1.9967568E-1,-8.284243E-1,-5.454E-1,-1.8623315E-1,-8.037537E-1,-1.2446241E-1,-8.2731046E-2,-3.1151798E-1,-6.749722E-1,-6.164517E-1,1.4837947E0,5.901221E-2,9.949314E-1,2.5336102E-1,-2.1614316E-1,2.9476753E-2,-1.8468936E-1,2.6176543E0,-9.0398353E-1,-1.1600875E-1,2.4594484E-1,-2.2443105E-1,-6.2336606E-1,3.3927977E-2,-6.874935E-1,-1.3319513E-1,-8.015619E-2,-6.8391335E-1,-1.2122435E-2,-4.974763E-1,2.8652933E0,1.1820425E-1,4.335385E-2,-3.586211E-2,-1.1007165E-1,3.737351E-3,-1.4846918E-2,-9.101166E-2,1.7482407E-1,1.3114502E-1,-1.0042479E-1,1.0455878E-1,8.47265E-3,1.3592479E-1,-4.5326725E-3,-5.009525E-2,8.151052E-2,-1.4220877E-1,-8.627126E-2,-3.3012066E-2,1.7603421E-1,-1.760033E-2,-6.5080926E-2,-1.0434117E-1,6.354616E-2,-7.700264E-2,-6.791654E-2,-2.1339996E-2,-1.4734252E-1,-6.367614E-2,-1.0600728E-1,3.6415376E-2,-4.1706115E-3,6.275344E-2,-4.2941846E-2,-1.36301E-1,1.8966937E-1,-6.388657E-2,-1.0819353E-1,-1.3739966E-1,6.458348E-2,-9.9626206E-2,-3.69011E-2,-1.4802891E-1,1.5795802E-1,8.220371E-3,-1.052988E-2,-1.4802949E-1,6.451278E-2,-6.7516655E-2,1.4713229E-1,1.9643452E-2,-5.6731142E-2,2.6322668E-2,4.8207186E-2,1.2843184E-1,-8.914347E-2,1.9044286E-2,7.37116E-2,-1.2640938E-1,8.9414045E-2,-7.045717E-2,1.2252597E-1,3.4890566E-3,-3.3751648E-2,1.0651056E-1,2.9511327E-2,1.1938485E-1,1.1608962E-1,8.5644074E-2,-1.05767705E-1,7.602093E-2,-6.0712017E-2,1.16187766E-1],"split_indices":[3,21,3,0,0,3,3,0,3,0,9,0,21,0,9,0,13,3,0,8,0,11,16,0,4,2,19,0,14,9,6,4,0,0,6,17,0,8,20,21,16,0,14,20,10,15,8,3,17,0,0,18,22,0,0,0,11,22,0,11,0,9,15,2,17,16,19,9,8,0,15,19,15,18,0,13,4,0,19,18,21,9,11,9,0,0,10,20,14,3,0,0,0,0,0,0,0,0,0,0,0,0,0,0,0,0,0,0,0,0,0,0,0,0,0,0,0,0,0,0,0,0,0,0,0,0,0,0,0,0,0,0,0,0,0,0,0,0,0,0,0,0,0,0,0,0,0,0,0,0,0,0,0,0,0,0,0,0,0,0,0,0,0],"split_type":[0,0,0,0,0,0,0,0,0,0,0,0,0,0,0,0,0,0,0,0,0,0,0,0,0,0,0,0,0,0,0,0,0,0,0,0,0,0,0,0,0,0,0,0,0,0,0,0,0,0,0,0,0,0,0,0,0,0,0,0,0,0,0,0,0,0,0,0,0,0,0,0,0,0,0,0,0,0,0,0,0,0,0,0,0,0,0,0,0,0,0,0,0,0,0,0,0,0,0,0,0,0,0,0,0,0,0,0,0,0,0,0,0,0,0,0,0,0,0,0,0,0,0,0,0,0,0,0,0,0,0,0,0,0,0,0,0,0,0,0,0,0,0,0,0,0,0,0,0,0,0,0,0,0,0,0,0,0,0,0,0,0,0],"sum_hessian":[7.2207397E3,4.848533E3,2.3722065E3,2.36634E3,2.482193E3,1.043124E3,1.3290825E3,6.031909E2,1.7631492E3,1.6114178E3,8.707753E2,5.2374935E1,9.90749E2,1.3237064E2,1.1967119E3,4.9053665E2,1.12654274E2,8.98227E2,8.649221E2,1.6026978E3,8.720029E0,7.0175024E2,1.6902513E2,8.0589E2,1.8485901E2,2.8470776E1,1.1682411E3,3.5524875E2,1.352879E2,9.846591E1,1.4188365E1,8.7439325E2,2.3833748E1,5.827794E2,2.821427E2,1.4942892E3,1.08408646E2,3.1965976E2,3.8209045E2,1.4692407E2,2.2101057E1,2.4466235E2,5.6122766E2,8.129305E1,1.0356596E2,1.37589245E1,1.4711852E1,1.1543536E3,1.38874445E1,2.9530374E2,5.9945015E1,5.3577995E1,8.170991E1,1.4979614E0,9.696795E1,5.976328E0,8.212037E0,8.032635E2,7.112979E1,2.9989398E2,2.828854E2,2.5919574E2,2.2946955E1,6.11112E2,8.831772E2,1.0863682E1,9.754497E1,8.513176E1,2.34528E2,3.7518765E2,6.902814E0,1.3808214E2,8.841935E0,2.0215734E1,1.8853216E0,1.9068022E2,5.398214E1,4.3951126E2,1.2171642E2,4.689225E1,3.4400806E1,1.9285618E1,8.428034E1,1.0027532E1,3.7313924E0,1.4860511E0,1.32258005E1,1.1189736E3,3.5380054E1,1.001742E1,3.8700242E0,8.6269646E1,2.0903409E2,4.73672E1,6.210795E0,5.8317688E1,2.3392223E1,4.4248653E1,5.27193E1,4.74396E0,1.2323682E0,1.923553E0,6.288484E0,6.6815625E2,1.3510721E2,6.514009E1,5.989703E0,1.5340001E2,1.4649399E2,3.1745573E1,2.5113983E2,5.52754E1,2.0392035E2,1.4832718E1,8.114238E0,1.8085782E2,4.3025415E2,8.154598E1,8.0163116E2,9.151505E0,1.7121764E0,4.8467052E1,4.9077915E1,2.0978544E1,6.415321E1,4.126746E0,2.3040125E2,2.2382864E2,1.5135901E2,3.840606E0,3.0622082E0,1.320061E2,6.0760336E0,2.97595E0,5.865985E0,1.4016016E0,1.8814135E1,1.8602386E2,4.656356E0,5.1820568E1,2.1615746E0,4.2690125E1,3.9682114E2,1.04376495E2,1.7339924E1,2.964069E1,1.7251558E1,1.6893994E0,3.2711407E1,2.7396126E0,1.6546005E1,9.439019E0,7.4841324E1,8.147025E0,1.8805069E0,6.3996034E0,6.8261976E0,9.9660126E2,1.2237233E2,2.1675658E0,3.321249E1,7.844451E0,2.1729689E0],"tree_param":{"num_deleted":"0","num_feature":"23","num_nodes":"163","size_leaf_vector":"1"}},{"base_weights":[9.417161E-3,-3.3351156E-1,7.195114E-1,-6.885054E-2,-5.3889763E-1,3.0649185E-1,1.0467116E0,-1.3814516E-1,5.081449E-1,-5.8217424E-1,1.9509009E-1,1.4030339E-1,2.4635673E-1,1.4173561E-1,1.0043895E0,-3.8587242E-2,-4.4829413E-1,2.7015063E-1,8.672208E-1,-4.9838725E-1,-8.95655E-1,1.5834764E-1,4.385731E-2,3.508813E-1,-3.996171E-1,-2.0537235E-2,1.02992E0,2.5123802E-1,-1.4678313E-1,-9.932058E-1,-2.8588825E-1,4.4542137E-1,-6.37242E-1,1.29717E0,3.8939363E-1,-1.4793357E-1,-5.80976E-1,-9.6629363E-1,-3.356555E-1,1.5856566E-1,-9.8744816E-1,5.187711E-1,3.051925E-2,-5.814472E-1,4.3883353E-1,-2.987701E-1,6.6780925E-1,1.0450324E0,3.375097E-1,2.2251908E-2,1.289145E0,2.2912486E-2,-4.5299253E-1,-1.1139654E0,-4.3860566E-2,-5.2457865E-2,-5.1462215E-1,8.275659E-1,5.302953E-3,-8.093668E-1,6.670629E-2,1.3979617E0,-1.6367191E-1,-6.0586965E-1,6.7817897E-1,-2.1548843E-1,1.6366856E-1,-4.000705E-1,-6.938248E-1,-8.172191E-1,-1.1500789E0,4.976607E-1,-5.3796774E-1,5.265674E-1,-1.2994553E-1,-1.429896E-1,-1.2235309E0,2.5595176E-1,6.619235E-1,3.1350756E-1,-3.7850344E-1,-3.2475492E-1,-1.0886163E0,-3.2526052E-1,8.771006E-1,2.0149161E-1,-7.7275753E-1,9.901087E-1,-5.6592293E-2,3.5992584E-1,1.0576541E0,-9.372022E-1,5.891515E-1,-3.4765374E-2,1.9331643E-2,1.6025236E-1,1.0264454E-1,-5.3477776E-4,1.4648655E-1,-5.6653272E-2,5.162806E-2,-1.2308066E-1,-5.9537318E-2,1.0132865E-1,-5.3969134E-2,-2.965719E-2,5.79709E-2,-1.7263945E-2,-8.14039E-2,9.7790614E-2,-8.9567475E-2,-3.366139E-2,4.3918513E-2,-1.16531335E-1,-1.5055743E-2,1.5458669E-1,4.719925E-2,4.7935355E-2,-6.2623136E-2,3.825396E-2,-1.0443242E-1,-9.0215765E-2,7.902584E-2,-3.9658113E-3,-5.0217547E-2,-4.5273792E-2,1.8684235E-1,-3.986359E-2,-7.765577E-2,4.7952146E-3,-8.767032E-2,-4.815645E-2,-1.1926122E-1,1.0016356E-1,-9.237257E-2,-2.5777167E-2,-1.0610973E-1,-9.434999E-2,7.285788E-2,3.423254E-2,-3.393316E-2,7.913126E-2,-8.0189414E-2,-1.4350195E-1,-1.8722134E-2,5.4722693E-2,2.9445414E-3,9.0315215E-2,4.9930695E-2,3.929182E-2,-1.2698202E-1,-8.986222E-2,-1.0784694E-2,-8.17839E-2,-3.2291634E-3,-5.5087864E-2,-1.2572467E-1,3.0453324E-2,-1.441112E-1,1.3149463E-1,2.2557369E-2,-6.084448E-2,6.7031674E-2,-1.08398795E-1,7.6212436E-2,1.862795E-3,1.2849669E-1,9.307554E-2,-5.6676585E-2,4.2712744E-2,1.0695634E-1,-1.9072648E-2,-1.3935436E-1,1.22471765E-1,-1.4293966E-2],"categories":[],"categories_nodes":[],"categories_segments":[],"categories_sizes":[],"default_left":[0,0,0,0,0,0,0,0,0,0,0,0,0,0,0,0,0,0,0,0,0,0,0,0,0,0,0,0,0,0,0,0,0,0,0,0,0,0,0,0,0,0,0,0,0,0,0,0,0,0,0,0,0,0,0,0,0,0,0,0,0,0,0,0,0,0,0,0,0,0,0,0,0,0,0,0,0,0,0,0,0,0,0,0,0,0,0,0,0,0,0,0,0,0,0,0,0,0,0,0,0,0,0,0,0,0,0,0,0,0,0,0,0,0,0,0,0,0,0,0,0,0,0,0,0,0,0,0,0,0,0,0,0,0,0,0,0,0,0,0,0,0,0,0,0,0,0,0,0,0,0,0,0,0,0,0,0,0,0,0,0,0,0,0,0,0,0,0,0,0,0,0,0,0,0],"id":5,"left_children":[1,3,5,7,9,11,13,15,17,19,21,-1,23,-1,25,27,29,31,33,35,37,-1,39,41,43,45,47,49,51,53,55,57,59,61,63,65,67,69,71,73,75,77,79,81,83,85,87,89,91,93,95,97,99,101,103,105,107,109,111,113,-1,115,117,119,121,123,-1,125,127,129,131,133,135,137,139,141,143,145,147,149,151,153,155,157,159,161,163,165,-1,167,169,171,173,-1,-1,-1,-1,-1,-1,-1,-1,-1,-1,-1,-1,-1,-1,-1,-1,-1,-1,-1,-1,-1,-1,-1,-1,-1,-1,-1,-1,-1,-1,-1,-1,-1,-1,-1,-1,-1,-1,-1,-1,-1,-1,-1,-1,-1,-1,-1,-1,-1,-1,-1,-1,-1,-1,-1,-1,-1,-1,-1,-1,-1,-1,-1,-1,-1,-1,-1,-1,-1,-1,-1,-1,-1,-1,-1,-1,-1,-1,-1,-1,-1,-1],"loss_changes":[1.7337927E3,2.6094952E2,3.1302698E2,8.399609E1,8.5980225E1,6.7332375E1,1.8864258E1,5.7871853E1,1.901707E1,6.6608765E1,3.1690464E1,0E0,6.591838E1,0E0,3.0485474E1,4.457479E1,4.00241E1,2.20612E1,1.7849434E1,5.8286774E1,2.0925507E1,0E0,1.6414488E1,4.511306E1,2.101166E1,5.806483E0,1.1533813E1,9.1819305E1,5.3783722E1,1.1894188E1,1.87834E1,1.9396484E1,5.6089354E0,7.0899506E0,1.298365E1,4.6885925E1,3.3035645E1,1.2114685E1,1.0670289E1,1.3290744E1,2.5950298E0,2.0541199E1,3.3636967E1,1.4268257E1,8.601489E0,5.263157E0,4.0341487E0,9.228149E0,8.808971E0,2.016577E1,4.10408E0,2.7179976E1,4.0906967E1,4.8647385E0,7.254683E0,2.725097E1,1.8067963E1,1.6869946E1,8.250187E0,4.6080017E0,0E0,5.254677E0,1.4610103E0,4.8919454E0,6.802017E0,1.8771404E1,0E0,7.602433E1,2.4199371E1,1.3759277E1,5.4236145E0,9.932053E0,7.0744705E0,1.6998968E1,7.0985184E0,3.2004476E0,2.0821705E0,1.2897756E1,1.3503845E1,2.2088095E1,1.6637133E1,1.09330015E1,2.6913338E0,7.312846E0,4.282544E0,4.688265E0,6.2084637E0,2.0644054E0,0E0,1.1962771E1,7.732544E0,1.3113089E0,1.0463069E1,0E0,0E0,0E0,0E0,0E0,0E0,0E0,0E0,0E0,0E0,0E0,0E0,0E0,0E0,0E0,0E0,0E0,0E0,0E0,0E0,0E0,0E0,0E0,0E0,0E0,0E0,0E0,0E0,0E0,0E0,0E0,0E0,0E0,0E0,0E0,0E0,0E0,0E0,0E0,0E0,0E0,0E0,0E0,0E0,0E0,0E0,0E0,0E0,0E0,0E0,0E0,0E0,0E0,0E0,0E0,0E0,0E0,0E0,0E0,0E0,0E0,0E0,0E0,0E0,0E0,0E0,0E0,0E0,0E0,0E0,0E0,0E0,0E0,0E0,0E0,0E0,0E0,0E0,0E0,0E0,0E0,0E0],"parents":[2147483647,0,0,1,1,2,2,3,3,4,4,5,5,6,6,7,7,8,8,9,9,10,10,12,12,14,14,15,15,16,16,17,17,18,18,19,19,20,20,22,22,23,23,24,24,25,25,26,26,27,27,28,28,29,29,30,30,31,31,32,32,33,33,34,34,35,35,36,36,37,37,38,38,39,39,40,40,41,41,42,42,43,43,44,44,45,45,46,46,47,47,48,48,49,49,50,50,51,51,52,52,53,53,54,54,55,55,56,56,57,57,58,58,59,59,61,61,62,62,63,63,64,64,65,65,67,67,68,68,69,69,70,70,71,71,72,72,73,73,74,74,75,75,76,76,77,77,78,78,79,79,80,80,81,81,82,82,83,83,84,84,85,85,86,86,87,87,89,89,90,90,91,91,92,92],"right_children":[2,4,6,8,10,12,14,16,18,20,22,-1,24,-1,26,28,30,32,34,36,38,-1,40,42,44,46,48,50,52,54,56,58,60,62,64,66,68,70,72,74,76,78,80,82,84,86,88,90,92,94,96,98,100,102,104,106,108,110,112,114,-1,116,118,120,122,124,-1,126,128,130,132,134,136,138,140,142,144,146,148,150,152,154,156,158,160,162,164,166,-1,168,170,172,174,-1,-1,-1,-1,-1,-1,-1,-1,-1,-1,-1,-1,-1,-1,-1,-1,-1,-1,-1,-1,-1,-1,-1,-1,-1,-1,-1,-1,-1,-1,-1,-1,-1,-1,-1,-1,-1,-1,-1,-1,-1,-1,-1,-1,-1,-1,-1,-1,-1,-1,-1,-1,-1,-1,-1,-1,-1,-1,-1,-1,-1,-1,-1,-1,-1,-1,-1,-1,-1,-1,-1,-1,-1,-1,-1,-1,-1,-1,-1,-1,-1,-1],"split_conditions":[2.5805384E-2,-3.2307202E-1,9.155191E-1,2.0495011E-1,2.0495011E-1,9.047122E-1,1.7945639E0,-2.2119057E-1,-2.567291E-1,1.770291E-1,1.8099213E0,1.4030339E-1,-1.5867043E-1,1.4173561E-1,-4.814983E-1,-9.0549827E-1,-2.208887E-1,-4.212465E-1,-2.1358766E-1,-6.7427635E-1,3.454933E0,1.5834764E-1,8.0519325E-1,-1.347586E-1,1.4443786E0,-5.442389E-1,5.494891E-1,-1.0570058E0,1.4860523E-2,8.197903E-1,-6.763978E-1,-1.8007709E-1,1.4880241E0,-7.477322E-2,-2.1354425E-1,-7.3989165E-1,7.887726E-1,6.172886E-1,1.847593E-1,-1.8135422E-1,-2.7025345E-1,-2.9303342E-1,-6.164517E-1,4.302325E-1,9.072452E-1,-6.506638E-1,7.9012895E-1,-1.4547888E0,-1.5044992E-1,-2.9303342E-1,-9.828315E-1,-8.621342E-1,-2.2952107E-1,-9.026008E-2,-2.617734E-1,-9.0398353E-1,-5.685549E-1,5.882241E-1,-2.2815639E-1,3.8829505E-1,6.670629E-2,2.0654756E-1,-3.7868905E-1,-2.965741E-1,-5.8372784E-1,-1.6081506E-1,1.6366856E-1,-1.2321035E0,-5.99967E-1,-6.737836E-1,-2.7880576E-1,3.9447242E-1,5.5514866E-1,-6.223685E-1,-5.2139122E-2,9.403137E-1,1.899031E0,-9.0549827E-1,-2.3713014E-1,-6.890513E-1,-2.9303342E-1,-5.6204975E-1,-2.6796043E-1,-7.2401606E-2,2.0819266E0,-2.795919E-1,2.635502E-1,-6.546207E-1,-5.6592293E-2,-3.325354E-1,-6.3756615E-1,-2.4403815E-1,-1.2244375E-1,-3.4765374E-2,1.9331643E-2,1.6025236E-1,1.0264454E-1,-5.3477776E-4,1.4648655E-1,-5.6653272E-2,5.162806E-2,-1.2308066E-1,-5.9537318E-2,1.0132865E-1,-5.3969134E-2,-2.965719E-2,5.79709E-2,-1.7263945E-2,-8.14039E-2,9.7790614E-2,-8.9567475E-2,-3.366139E-2,4.3918513E-2,-1.16531335E-1,-1.5055743E-2,1.5458669E-1,4.719925E-2,4.7935355E-2,-6.2623136E-2,3.825396E-2,-1.0443242E-1,-9.0215765E-2,7.902584E-2,-3.9658113E-3,-5.0217547E-2,-4.5273792E-2,1.8684235E-1,-3.986359E-2,-7.765577E-2,4.7952146E-3,-8.767032E-2,-4.815645E-2,-1.1926122E-1,1.0016356E-1,-9.237257E-2,-2.5777167E-2,-1.0610973E-1,-9.434999E-2,7.285788E-2,3.423254E-2,-3.393316E-2,7.913126E-2,-8.0189414E-2,-1.4350195E-1,-1.8722134E-2,5.4722693E-2,2.9445414E-3,9.0315215E-2,4.9930695E-2,3.929182E-2,-1.2698202E-1,-8.986222E-2,-1.0784694E-2,-8.17839E-2,-3.2291634E-3,-5.5087864E-2,-1.2572467E-1,3.0453324E-2,-1.441112E-1,1.3149463E-1,2.2557369E-2,-6.084448E-2,6.7031674E-2,-1.08398795E-1,7.6212436E-2,1.862795E-3,1.2849669E-1,9.307554E-2,-5.6676585E-2,4.2712744E-2,1.0695634E-1,-1.9072648E-2,-1.3935436E-1,1.22471765E-1,-1.4293966E-2],"split_indices":[3,21,3,5,5,3,3,15,16,16,5,0,21,0,4,0,15,9,16,0,13,0,15,0,7,5,19,0,3,6,0,1,2,15,16,0,1,21,20,18,17,20,8,21,9,13,0,2,14,20,0,3,15,12,19,0,9,0,17,8,0,0,21,17,13,15,0,1,12,22,15,16,17,11,15,15,12,0,20,9,20,11,0,16,12,17,21,13,0,10,22,18,16,0,0,0,0,0,0,0,0,0,0,0,0,0,0,0,0,0,0,0,0,0,0,0,0,0,0,0,0,0,0,0,0,0,0,0,0,0,0,0,0,0,0,0,0,0,0,0,0,0,0,0,0,0,0,0,0,0,0,0,0,0,0,0,0,0,0,0,0,0,0,0,0,0,0,0,0,0,0,0,0,0,0],"split_type":[0,0,0,0,0,0,0,0,0,0,0,0,0,0,0,0,0,0,0,0,0,0,0,0,0,0,0,0,0,0,0,0,0,0,0,0,0,0,0,0,0,0,0,0,0,0,0,0,0,0,0,0,0,0,0,0,0,0,0,0,0,0,0,0,0,0,0,0,0,0,0,0,0,0,0,0,0,0,0,0,0,0,0,0,0,0,0,0,0,0,0,0,0,0,0,0,0,0,0,0,0,0,0,0,0,0,0,0,0,0,0,0,0,0,0,0,0,0,0,0,0,0,0,0,0,0,0,0,0,0,0,0,0,0,0,0,0,0,0,0,0,0,0,0,0,0,0,0,0,0,0,0,0,0,0,0,0,0,0,0,0,0,0,0,0,0,0,0,0,0,0,0,0,0,0],"sum_hessian":[7.1179707E3,4.8002812E3,2.3176892E3,2.098056E3,2.7022253E3,1.0253469E3,1.2923424E3,1.8737832E3,2.242726E2,2.5519658E3,1.5025963E2,5.2146324E1,9.732006E2,1.291133E2,1.1632291E3,1.419309E3,4.5447427E2,1.3593062E2,8.834199E1,2.015779E3,5.361868E2,1.3829354E1,1.3643028E2,8.380527E2,1.3514789E2,2.8276024E1,1.134953E3,3.8545776E2,1.0338512E3,1.03176414E2,3.5129785E2,1.14351715E2,2.1578903E1,4.5598087E1,4.2743904E1,3.849767E2,1.6308022E3,4.7548352E2,6.0703297E1,1.2353606E2,1.2894218E1,5.494743E2,2.885784E2,1.1131431E2,2.3833586E1,2.053973E1,7.7362947E0,1.1102125E3,2.4740545E1,3.1662454E2,6.883321E1,6.658015E2,3.6804974E2,9.137929E1,1.1797131E1,1.7447241E2,1.7682544E2,6.073586E1,5.3615852E1,1.9398422E1,2.18048E0,4.2695335E1,2.9027498E0,9.366257E0,3.3377647E1,3.7178253E2,1.31941805E1,6.282358E2,1.00256647E3,2.6554086E2,2.0994266E2,1.1573332E1,4.9129967E1,5.3926556E1,6.9609505E1,3.1680188E0,9.726199E0,1.9473686E2,3.5473746E2,1.7070628E2,1.1787211E2,7.499673E1,3.631758E1,8.781457E0,1.505213E1,1.0272598E1,1.0267132E1,6.29045E0,1.4458451E0,2.0617426E1,1.0895951E3,3.6296933E0,2.1110851E1,9.979597E1,2.1682858E2,2.9063126E1,3.977009E1,6.5398065E2,1.1820815E1,3.298292E2,3.8220535E1,7.345597E1,1.7923319E1,3.4333553E0,8.363775E0,1.2625092E2,4.822149E1,8.3281265E1,9.3544174E1,5.6260094E1,4.4757657E0,3.0111189E1,2.3504663E1,1.2094888E1,7.303535E0,3.623764E1,6.4576964E0,1.1992749E0,1.7034748E0,2.917302E0,6.4489546E0,1.743584E0,3.1634064E1,2.3115147E2,1.4063106E2,6.147633E2,1.3472485E1,2.2075081E2,7.818157E2,1.7095E1,2.4844586E2,1.3295371E1,1.966473E2,8.761955E0,2.8113773E0,3.2965755E1,1.6164211E1,6.0716567E0,4.7854897E1,2.1187077E1,4.842243E1,1.2270937E0,1.940925E0,7.7581806E0,1.9680188E0,8.45693E1,1.10167564E2,1.4100862E2,2.1372882E2,1.6326947E2,7.4368205E0,3.9549652E1,7.832246E1,2.7252863E1,4.7743862E1,9.68866E0,2.662892E1,6.07805E0,2.7034063E0,8.393316E0,6.658814E0,3.6570008E0,6.6155972E0,8.780467E0,1.4866645E0,1.7122396E0,4.5782104E0,1.27557E1,7.861725E0,2.0881897E1,1.0687131E3,1.9150434E0,1.7146498E0,1.0940198E1,1.0170654E1],"tree_param":{"num_deleted":"0","num_feature":"23","num_nodes":"175","size_leaf_vector":"1"}},{"base_weights":[-1.4866352E-4,-3.186585E-1,6.711656E-1,-1.24392636E-1,-5.552132E-1,2.7424717E-1,9.9328446E-1,-1.8741192E-1,5.060967E-1,-4.2311522E-1,-7.525695E-1,1.3454652E-1,2.1987261E-1,1.9000612E-1,1.013336E0,-5.8493704E-2,-5.049601E-1,5.722269E-1,-4.0353298E-1,-4.5140293E-1,2.2902654E-1,-8.599609E-1,-3.5149974E-1,3.4254298E-1,-3.127688E-1,1.2414687E-1,-2.7118096E-1,1.358754E-1,9.7707105E-1,-3.1718257E-1,6.842087E-2,-1.0935053E0,-3.6193866E-1,6.073781E-1,-4.9849853E-1,-6.0297346E-1,1.159633E-1,-4.9765262E-1,1.7404859E-1,-5.71732E-1,-1.0081432E0,-2.1597296E-1,-9.0999365E-1,6.1257505E-1,2.2839192E-1,-8.9478695E-1,-1.2815261E-2,-7.7960926E-1,5.828291E-1,8.841556E-1,1.093379E0,-4.7762398E-2,-5.9640145E-1,4.590324E-1,-7.00119E-2,-1.3075743E0,-7.4159795E-1,-1.1959087E-1,-5.3452176E-1,-1.6872041E-1,6.461585E-1,-1.0599735E0,3.812436E-1,-1.5277983E-1,-1.3518469E-1,-3.5207453E-1,-7.4148977E-1,2.9480082E-1,-1.0766104E0,-1.2970699E0,-4.9109954E-1,-1.0328175E0,-8.377647E-2,7.295253E-2,-4.834203E-1,3.9379027E-2,-9.870028E-1,4.4094124E-1,1.269786E0,1.9699758E-1,1.1314445E0,-1.0000064E0,1.5048818E-2,8.760979E-2,-1.1770964E0,-4.5112506E-1,-1.435069E-1,4.6304255E-3,1.2780271E-1,9.2238873E-1,4.126724E-1,1.1240379E0,4.75459E-1,-1.9738229E-2,7.262284E-2,-3.4254394E-2,-8.427996E-2,2.3084039E-2,1.3561194E-1,1.580189E-2,-3.1695675E-2,-1.3177422E-2,-1.3315195E-1,-9.499979E-2,-1.7291706E-2,-3.8318627E-2,3.477056E-2,-3.904198E-3,-7.7495836E-2,5.4177362E-2,-7.776094E-2,9.7288996E-2,5.334651E-2,-1.3233346E-2,-1.3311045E-1,1.0946518E-1,-5.7619106E-2,-1.2001709E-1,4.508032E-2,-4.474508E-2,2.712784E-3,-5.3239625E-2,-9.727521E-2,-5.8204867E-2,4.432943E-2,2.146168E-2,-1.3330816E-1,-6.971788E-2,-1.4943083E-1,-8.53141E-2,-3.509084E-2,-9.156466E-2,-1.20599106E-1,4.8591446E-2,-1.129511E-1,-8.228733E-3,1.6889994E-1,-6.510096E-2,8.589531E-3,-1.2739798E-1,-6.2861405E-2,6.1395206E-2,-9.0686055E-3,1.32093E-1,1.0597086E-2,-2.4268879E-2,2.644043E-2,-8.7665714E-2,1.3238716E-1,-1.14604175E-1,-9.662758E-3,1.2877493E-1,-5.7105936E-2,1.7475361E-2,-1.02174364E-1,-1.3400057E-1,-3.1718194E-2,-6.7066625E-2,3.9259378E-2,-1.169846E-1,7.6149315E-2,-4.8659753E-2,9.352217E-2,5.620334E-3,7.2155125E-2,1.13807045E-1,2.1429492E-2,6.332314E-2,-1.4670847E-1],"categories":[],"categories_nodes":[],"categories_segments":[],"categories_sizes":[],"default_left":[0,0,0,0,0,0,0,0,0,0,0,0,0,0,0,0,0,0,0,0,0,0,0,0,0,0,0,0,0,0,0,0,0,0,0,0,0,0,0,0,0,0,0,0,0,0,0,0,0,0,0,0,0,0,0,0,0,0,0,0,0,0,0,0,0,0,0,0,0,0,0,0,0,0,0,0,0,0,0,0,0,0,0,0,0,0,0,0,0,0,0,0,0,0,0,0,0,0,0,0,0,0,0,0,0,0,0,0,0,0,0,0,0,0,0,0,0,0,0,0,0,0,0,0,0,0,0,0,0,0,0,0,0,0,0,0,0,0,0,0,0,0,0,0,0,0,0,0,0,0,0,0,0,0,0,0,0,0,0,0,0,0,0,0,0,0,0,0,0],"id":6,"left_children":[1,3,5,7,9,11,13,15,17,19,21,-1,23,25,27,29,31,33,35,37,-1,39,41,43,45,-1,47,-1,49,51,53,55,57,59,61,63,-1,65,67,69,71,73,75,77,79,81,83,85,87,89,91,93,95,97,99,101,103,105,107,109,111,113,115,117,-1,119,121,123,125,127,129,131,133,135,137,-1,139,141,143,145,147,149,151,153,155,157,-1,159,-1,161,163,165,167,-1,-1,-1,-1,-1,-1,-1,-1,-1,-1,-1,-1,-1,-1,-1,-1,-1,-1,-1,-1,-1,-1,-1,-1,-1,-1,-1,-1,-1,-1,-1,-1,-1,-1,-1,-1,-1,-1,-1,-1,-1,-1,-1,-1,-1,-1,-1,-1,-1,-1,-1,-1,-1,-1,-1,-1,-1,-1,-1,-1,-1,-1,-1,-1,-1,-1,-1,-1,-1,-1,-1,-1,-1,-1,-1,-1],"loss_changes":[1.4999951E3,2.1857458E2,2.8834546E2,1.0394556E2,5.560553E1,5.8688553E1,1.9872437E1,9.727687E1,1.453426E1,9.984044E1,3.6688354E1,0E0,6.3155388E1,1.5645314E1,1.3894043E1,5.556325E1,5.7366074E1,8.661194E0,5.9060454E0,3.696402E1,0E0,2.8327454E1,1.3661093E1,2.4050598E1,3.1613907E1,0E0,1.0339013E1,0E0,1.0955933E1,4.1871395E1,6.1445686E1,9.099274E0,2.3088554E1,6.5940857E0,4.162184E0,5.008843E0,0E0,4.1885925E1,1.3685656E1,1.2937271E1,1.0077759E1,1.1521124E1,3.9470253E0,2.5675652E1,1.5460663E1,5.911648E0,1.4199167E1,2.517087E0,3.6389005E0,1.0769257E1,8.667603E0,3.3095463E1,1.6814224E1,6.0550247E1,4.7319027E1,2.127472E0,6.100878E0,2.8652357E1,3.8452187E1,5.200449E0,7.0447464E0,1.0584402E0,3.1576343E0,7.3616357E0,0E0,2.696962E1,2.090181E1,1.0871254E1,2.9384165E0,1.6334915E0,1.0383781E1,7.7013855E0,8.099718E0,1.828236E1,7.4331875E0,0E0,2.6702423E0,1.7159279E1,2.6951141E0,1.5944784E1,8.260847E0,7.1747704E0,6.232957E0,1.0997845E1,9.257469E-1,2.3470142E0,0E0,6.183422E0,0E0,1.0785492E1,5.26709E0,5.65448E0,8.497188E0,0E0,0E0,0E0,0E0,0E0,0E0,0E0,0E0,0E0,0E0,0E0,0E0,0E0,0E0,0E0,0E0,0E0,0E0,0E0,0E0,0E0,0E0,0E0,0E0,0E0,0E0,0E0,0E0,0E0,0E0,0E0,0E0,0E0,0E0,0E0,0E0,0E0,0E0,0E0,0E0,0E0,0E0,0E0,0E0,0E0,0E0,0E0,0E0,0E0,0E0,0E0,0E0,0E0,0E0,0E0,0E0,0E0,0E0,0E0,0E0,0E0,0E0,0E0,0E0,0E0,0E0,0E0,0E0,0E0,0E0,0E0,0E0,0E0,0E0,0E0,0E0],"parents":[2147483647,0,0,1,1,2,2,3,3,4,4,5,5,6,6,7,7,8,8,9,9,10,10,12,12,13,13,14,14,15,15,16,16,17,17,18,18,19,19,21,21,22,22,23,23,24,24,26,26,28,28,29,29,30,30,31,31,32,32,33,33,34,34,35,35,37,37,38,38,39,39,40,40,41,41,42,42,43,43,44,44,45,45,46,46,47,47,48,48,49,49,50,50,51,51,52,52,53,53,54,54,55,55,56,56,57,57,58,58,59,59,60,60,61,61,62,62,63,63,65,65,66,66,67,67,68,68,69,69,70,70,71,71,72,72,73,73,74,74,76,76,77,77,78,78,79,79,80,80,81,81,82,82,83,83,84,84,85,85,87,87,89,89,90,90,91,91,92,92],"right_children":[2,4,6,8,10,12,14,16,18,20,22,-1,24,26,28,30,32,34,36,38,-1,40,42,44,46,-1,48,-1,50,52,54,56,58,60,62,64,-1,66,68,70,72,74,76,78,80,82,84,86,88,90,92,94,96,98,100,102,104,106,108,110,112,114,116,118,-1,120,122,124,126,128,130,132,134,136,138,-1,140,142,144,146,148,150,152,154,156,158,-1,160,-1,162,164,166,168,-1,-1,-1,-1,-1,-1,-1,-1,-1,-1,-1,-1,-1,-1,-1,-1,-1,-1,-1,-1,-1,-1,-1,-1,-1,-1,-1,-1,-1,-1,-1,-1,-1,-1,-1,-1,-1,-1,-1,-1,-1,-1,-1,-1,-1,-1,-1,-1,-1,-1,-1,-1,-1,-1,-1,-1,-1,-1,-1,-1,-1,-1,-1,-1,-1,-1,-1,-1,-1,-1,-1,-1,-1,-1,-1,-1],"split_conditions":[2.5805384E-2,-2.4186571E-1,9.155191E-1,8.197903E-1,4.818331E-1,9.047122E-1,-6.882268E-1,-1.7018579E-1,1.574625E0,4.0614855E-1,2.2380097E0,1.3454652E-1,-2.5665376E-1,1.7945639E0,1.7945639E0,-2.9303342E-1,-1.6983858E-1,8.146532E-2,-1.1600875E-1,3.8829505E-1,2.2902654E-1,-5.698146E-1,2.2545342E0,-9.0549827E-1,-5.2333593E-1,1.2414687E-1,6.41313E-1,1.358754E-1,3.8829505E-1,-3.1465188E-1,-9.0549827E-1,-1.9713502E-1,-6.763978E-1,-6.662485E-1,-2.8133044E-1,-1.954706E-1,1.159633E-1,-1.28179565E-2,3.356687E-1,-2.9142874E-1,2.0495011E-1,7.7631426E-1,1.3762811E-1,-1.0570058E0,1.8043157E0,6.731558E-1,5.889258E-1,-2.3946624E-1,-5.442389E-1,1.6831113E0,3.1892204E0,-6.8607986E-1,-6.6178226E-1,-1.0570058E0,-2.3713014E-1,-1.1863191E0,-1.8281037E-1,-9.0398353E-1,-6.083955E-1,-6.7071867E-1,1.4860523E-2,-3.8795885E-1,-1.6260692E-1,-2.6266855E-1,-1.3518469E-1,7.6479864E-1,-1.2122435E-2,-2.577567E-1,-2.2452278E-1,-6.51935E-1,-1.6610693E0,1.4837947E0,2.9930678E-1,-1.2321035E0,3.7593539E0,3.9379027E-2,-1.2321035E0,-1.0596461E0,-4.1409187E-2,-9.0398353E-1,-1.1343528E0,-1.3469637E-2,4.302325E-1,1.4533676E0,4.1418132E-1,-6.543103E-1,-1.435069E-1,-2.9303342E-1,1.2780271E-1,-1.1863191E0,-1.2321035E0,3.1387645E-1,1.6416149E0,-1.9738229E-2,7.262284E-2,-3.4254394E-2,-8.427996E-2,2.3084039E-2,1.3561194E-1,1.580189E-2,-3.1695675E-2,-1.3177422E-2,-1.3315195E-1,-9.499979E-2,-1.7291706E-2,-3.8318627E-2,3.477056E-2,-3.904198E-3,-7.7495836E-2,5.4177362E-2,-7.776094E-2,9.7288996E-2,5.334651E-2,-1.3233346E-2,-1.3311045E-1,1.0946518E-1,-5.7619106E-2,-1.2001709E-1,4.508032E-2,-4.474508E-2,2.712784E-3,-5.3239625E-2,-9.727521E-2,-5.8204867E-2,4.432943E-2,2.146168E-2,-1.3330816E-1,-6.971788E-2,-1.4943083E-1,-8.53141E-2,-3.509084E-2,-9.156466E-2,-1.20599106E-1,4.8591446E-2,-1.129511E-1,-8.228733E-3,1.6889994E-1,-6.510096E-2,8.589531E-3,-1.2739798E-1,-6.2861405E-2,6.1395206E-2,-9.0686055E-3,1.32093E-1,1.0597086E-2,-2.4268879E-2,2.644043E-2,-8.7665714E-2,1.3238716E-1,-1.14604175E-1,-9.662758E-3,1.2877493E-1,-5.7105936E-2,1.7475361E-2,-1.02174364E-1,-1.3400057E-1,-3.1718194E-2,-6.7066625E-2,3.9259378E-2,-1.169846E-1,7.6149315E-2,-4.8659753E-2,9.352217E-2,5.620334E-3,7.2155125E-2,1.13807045E-1,2.1429492E-2,6.332314E-2,-1.4670847E-1],"split_indices":[3,21,3,6,0,3,9,16,2,0,10,0,21,3,3,20,16,9,19,8,0,10,0,0,6,0,2,0,8,15,0,20,0,11,21,15,0,17,21,20,5,1,21,0,4,16,15,16,5,2,4,10,13,0,20,0,17,0,11,11,3,13,15,15,0,9,20,12,16,14,3,0,15,1,14,0,1,0,13,0,2,13,21,0,2,12,0,20,0,0,1,17,2,0,0,0,0,0,0,0,0,0,0,0,0,0,0,0,0,0,0,0,0,0,0,0,0,0,0,0,0,0,0,0,0,0,0,0,0,0,0,0,0,0,0,0,0,0,0,0,0,0,0,0,0,0,0,0,0,0,0,0,0,0,0,0,0,0,0,0,0,0,0,0,0,0,0,0,0],"split_type":[0,0,0,0,0,0,0,0,0,0,0,0,0,0,0,0,0,0,0,0,0,0,0,0,0,0,0,0,0,0,0,0,0,0,0,0,0,0,0,0,0,0,0,0,0,0,0,0,0,0,0,0,0,0,0,0,0,0,0,0,0,0,0,0,0,0,0,0,0,0,0,0,0,0,0,0,0,0,0,0,0,0,0,0,0,0,0,0,0,0,0,0,0,0,0,0,0,0,0,0,0,0,0,0,0,0,0,0,0,0,0,0,0,0,0,0,0,0,0,0,0,0,0,0,0,0,0,0,0,0,0,0,0,0,0,0,0,0,0,0,0,0,0,0,0,0,0,0,0,0,0,0,0,0,0,0,0,0,0,0,0,0,0,0,0,0,0,0,0],"sum_hessian":[7.0132163E3,4.7568296E3,2.2563865E3,2.6127148E3,2.1441147E3,1.01165967E3,1.2447269E3,2.3759358E3,2.3677908E2,1.2862936E3,8.5782104E2,4.7723698E1,9.63936E2,3.0569378E1,1.2141575E3,1.6907211E3,6.852147E2,2.2107765E2,1.5701439E1,1.273847E3,1.2446553E1,6.7573926E2,1.8208182E2,7.8378314E2,1.8015286E2,8.804366E0,2.176501E1,1.118959E2,1.1022616E3,5.5597766E2,1.1347435E3,1.3266042E2,5.5255426E2,2.1446948E2,6.6081624E0,1.4469564E1,1.2318748E0,1.1863271E3,8.751993E1,2.3109515E2,4.4464407E2,1.476412E2,3.4440605E1,2.3158554E2,5.521976E2,6.059452E1,1.19558334E2,1.3697456E1,8.067554E0,6.1753235E2,4.8472928E2,2.835497E2,2.7242792E2,2.963175E2,8.3842596E2,8.079579E1,5.1864624E1,2.3052924E2,3.2202505E2,1.0047222E1,2.0442227E2,3.9086738E0,2.6994886E0,9.78888E0,4.6806836E0,7.443636E2,4.4196356E2,8.051082E1,7.0091076E0,2.1610392E1,2.0948477E2,4.3296942E2,1.167466E1,7.132042E1,7.6320786E1,1.6913918E0,3.2749214E1,1.8495467E2,4.663087E1,5.348228E2,1.7374798E1,5.422452E1,6.369996E0,1.1091603E2,8.642309E0,1.0249279E1,3.4481776E0,4.953976E0,3.113579E0,5.703274E2,4.720495E1,4.6103537E2,2.3693907E1,2.3824051E2,4.5309204E1,1.3536014E2,1.370678E2,2.372305E2,5.9087006E1,4.3609372E2,4.0233224E2,1.7423613E0,7.905344E1,3.7464703E1,1.4399921E1,1.4750418E2,8.302505E1,1.0559092E2,2.1643413E2,4.687614E0,5.359608E0,5.0467896E1,1.5395438E2,1.2206057E0,2.688068E0,1.4647498E0,1.2347388E0,3.217382E0,6.5714984E0,5.9462476E2,1.4973886E2,2.3384087E2,2.081227E2,1.1236999E1,6.927382E1,1.1885306E0,5.8205767E0,6.4692287E0,1.5141163E1,5.7055145E1,1.5242963E2,2.619911E2,1.7097832E2,7.904057E0,3.770603E0,6.593562E1,5.3847938E0,5.8852806E1,1.7467981E1,1.6767794E1,1.5981421E1,1.3942566E2,4.552901E1,4.4538616E1,2.0922542E0,7.07471E1,4.6407568E2,1.2084159E0,1.6166382E1,4.6447464E1,7.7770576E0,1.63108E0,4.7389164E0,1.0361886E2,7.297172E0,6.796435E0,1.8458741E0,8.295773E0,1.9535071E0,1.727556E0,3.22642E0,4.8144035E0,5.6551294E2,2.2462975E1,2.4741976E1,4.5378485E2,7.2505198E0,2.2537447E1,1.1564604E0],"tree_param":{"num_deleted":"0","num_feature":"23","num_nodes":"169","size_leaf_vector":"1"}},{"base_weights":[-4.477134E-3,-1.9820997E-1,9.3118244E-1,7.3241675E-3,-4.4424397E-1,1.313235E-1,8.896823E-1,-8.4502004E-2,4.995436E-1,-4.8812163E-1,1.8265715E-1,-1.2973857E-1,9.09597E-1,2.3165248E-2,-2.8910652E-1,5.3917456E-1,-8.481052E-1,-3.6674553E-1,-6.450363E-1,1.6595541E-1,6.9350794E-2,-6.024517E-1,5.056355E-1,8.234023E-1,1.0207503E0,-1.4191304E-1,1.5276453E-1,-1.2846212E-1,-6.33413E-1,2.6008746E-1,6.5122503E-1,-1.5066214E-1,-1.2351137E-1,-2.4072613E-1,-5.832692E-1,-7.8221107E-1,-3.3244362E-1,1.8390779E-1,-1.0128105E0,-2.2315171E-1,-1.4063464E-1,7.3455705E-4,1.2132784E-1,-6.048036E-1,8.4095263E-1,-4.5823652E-1,1.0347773E0,2.2296743E-1,-4.011725E-1,1.1144016E0,7.342597E-2,-2.775105E-1,3.4813258E-1,-6.980846E-1,4.638604E-1,4.9215382E-1,-2.2732405E-1,1.4039325E0,5.8298445E-1,8.636611E-1,-1.3188381E-1,-5.0415885E-1,-1.2333102E-1,-3.8770068E-1,-8.956106E-1,-4.8235312E-1,-9.666446E-1,6.7763245E-1,-3.7200588E-1,-6.9757156E-2,4.4510734E-1,-1.2817281E0,-2.5193128E-1,-8.4738034E-1,2.0483041E-1,4.6388656E-1,-1.1160721E-1,-1.0142115E0,8.2716174E-2,-8.116533E-2,8.591352E-1,4.4272058E-2,-9.6068966E-1,1.051413E0,1.2882756E-1,3.6337923E-2,-3.5592046E-2,-4.6613287E-2,2.2478878E-2,-6.72321E-2,1.1544527E-1,1.8241424E-2,-3.2306533E-2,-4.449855E-3,-4.795335E-2,1.600293E-1,5.5426597E-3,-7.5519636E-2,7.3718275E-3,-2.7688533E-2,1.0788353E-1,1.4852674E-1,3.9146107E-2,1.888917E-2,-6.087611E-2,1.4724474E-1,-8.795046E-3,-6.157471E-2,6.0309406E-2,-2.9504364E-2,1.434224E-1,-5.5505455E-2,9.721089E-2,2.0300558E-1,-1.6673496E-2,-8.7137155E-2,-2.4502032E-2,-1.0172667E-1,-3.251391E-3,-1.4925778E-2,-6.261466E-2,-8.117096E-2,-1.12059705E-1,-3.3739302E-2,1.6307262E-1,-2.229183E-2,-6.218631E-2,-5.5975467E-2,2.8460218E-2,6.2345713E-2,-3.3062078E-2,-5.5319518E-2,-1.427969E-1,-7.2214134E-2,5.9221793E-2,-2.755109E-2,-1.1301605E-1,-5.847623E-2,6.035574E-2,1.0858359E-1,-7.138461E-2,3.5468884E-2,-1.365232E-1,3.0347181E-2,-1.5954597E-1,8.673798E-2,-9.4169825E-2,3.2632943E-2,-1.7995037E-1,1.0758823E-1,5.6929745E-2,-1.02926694E-1,6.7996256E-2],"categories":[],"categories_nodes":[],"categories_segments":[],"categories_sizes":[],"default_left":[0,0,0,0,0,0,0,0,0,0,0,0,0,0,0,0,0,0,0,0,0,0,0,0,0,0,0,0,0,0,0,0,0,0,0,0,0,0,0,0,0,0,0,0,0,0,0,0,0,0,0,0,0,0,0,0,0,0,0,0,0,0,0,0,0,0,0,0,0,0,0,0,0,0,0,0,0,0,0,0,0,0,0,0,0,0,0,0,0,0,0,0,0,0,0,0,0,0,0,0,0,0,0,0,0,0,0,0,0,0,0,0,0,0,0,0,0,0,0,0,0,0,0,0,0,0,0,0,0,0,0,0,0,0,0,0,0,0,0,0,0,0,0,0,0,0,0,0,0,0,0,0,0],"id":7,"left_children":[1,3,5,7,9,-1,11,13,15,17,19,21,23,25,27,29,31,33,35,-1,37,39,41,43,45,47,49,51,53,55,57,-1,59,61,63,65,67,69,71,73,-1,75,-1,77,79,81,83,85,87,89,91,93,95,97,99,101,103,105,107,109,-1,111,113,115,117,119,121,123,125,127,129,131,133,135,137,139,-1,141,-1,143,145,-1,147,149,151,-1,-1,-1,-1,-1,-1,-1,-1,-1,-1,-1,-1,-1,-1,-1,-1,-1,-1,-1,-1,-1,-1,-1,-1,-1,-1,-1,-1,-1,-1,-1,-1,-1,-1,-1,-1,-1,-1,-1,-1,-1,-1,-1,-1,-1,-1,-1,-1,-1,-1,-1,-1,-1,-1,-1,-1,-1,-1,-1,-1,-1,-1,-1,-1,-1,-1,-1,-1],"loss_changes":[1.2528859E3,2.8956497E2,1.7630005E1,1.4109964E2,7.178064E1,0E0,2.1892456E1,5.7965954E1,2.6671059E1,4.616046E1,2.8536152E1,6.7400427E0,9.239868E0,3.692217E1,5.0097534E1,1.4759979E1,6.6897345E0,3.7402954E1,4.5243164E1,0E0,2.002852E1,3.571478E0,3.4591944E0,1.5492035E1,9.921051E0,7.189813E1,7.367367E1,4.4128025E1,2.0786957E1,1.5769829E1,1.66445E1,0E0,1.0520063E1,2.6887272E1,3.0529984E1,4.0281128E1,1.32549095E1,9.676945E0,2.8435736E0,2.8040078E0,0E0,3.9586716E0,0E0,5.4340916E0,9.977631E0,2.6757517E0,6.667572E0,2.5811214E1,1.8164291E1,6.043579E0,3.869592E1,2.2232208E1,5.4196445E1,1.2076675E1,7.8837585E0,8.828007E0,7.312229E0,2.945572E0,7.9268265E0,3.7012458E0,0E0,2.0698792E1,5.680295E1,2.1360119E1,2.032367E1,1.3441704E1,9.94812E0,1.2757753E1,1.1549503E1,1.3133515E1,1.0148243E1,4.022045E-1,2.525757E0,3.6773968E-1,2.4454694E0,4.736916E0,0E0,3.6290073E0,0E0,7.6719832E0,9.422058E0,0E0,4.3731704E0,4.614929E0,6.622352E0,0E0,0E0,0E0,0E0,0E0,0E0,0E0,0E0,0E0,0E0,0E0,0E0,0E0,0E0,0E0,0E0,0E0,0E0,0E0,0E0,0E0,0E0,0E0,0E0,0E0,0E0,0E0,0E0,0E0,0E0,0E0,0E0,0E0,0E0,0E0,0E0,0E0,0E0,0E0,0E0,0E0,0E0,0E0,0E0,0E0,0E0,0E0,0E0,0E0,0E0,0E0,0E0,0E0,0E0,0E0,0E0,0E0,0E0,0E0,0E0,0E0,0E0,0E0,0E0,0E0,0E0,0E0,0E0],"parents":[2147483647,0,0,1,1,2,2,3,3,4,4,6,6,7,7,8,8,9,9,10,10,11,11,12,12,13,13,14,14,15,15,16,16,17,17,18,18,20,20,21,21,22,22,23,23,24,24,25,25,26,26,27,27,28,28,29,29,30,30,32,32,33,33,34,34,35,35,36,36,37,37,38,38,39,39,41,41,43,43,44,44,45,45,46,46,47,47,48,48,49,49,50,50,51,51,52,52,53,53,54,54,55,55,56,56,57,57,58,58,59,59,61,61,62,62,63,63,64,64,65,65,66,66,67,67,68,68,69,69,70,70,71,71,72,72,73,73,74,74,75,75,77,77,79,79,80,80,82,82,83,83,84,84],"right_children":[2,4,6,8,10,-1,12,14,16,18,20,22,24,26,28,30,32,34,36,-1,38,40,42,44,46,48,50,52,54,56,58,-1,60,62,64,66,68,70,72,74,-1,76,-1,78,80,82,84,86,88,90,92,94,96,98,100,102,104,106,108,110,-1,112,114,116,118,120,122,124,126,128,130,132,134,136,138,140,-1,142,-1,144,146,-1,148,150,152,-1,-1,-1,-1,-1,-1,-1,-1,-1,-1,-1,-1,-1,-1,-1,-1,-1,-1,-1,-1,-1,-1,-1,-1,-1,-1,-1,-1,-1,-1,-1,-1,-1,-1,-1,-1,-1,-1,-1,-1,-1,-1,-1,-1,-1,-1,-1,-1,-1,-1,-1,-1,-1,-1,-1,-1,-1,-1,-1,-1,-1,-1,-1,-1,-1,-1,-1,-1],"split_conditions":[9.155191E-1,-2.9019168E-1,1.7945639E0,6.1555624E-1,3.8829505E-1,1.313235E-1,-6.882268E-1,-4.5537445E-1,7.9012895E-1,-1.28179565E-2,1.9923155E0,4.1418132E-1,3.8829505E-1,-2.9303342E-1,-6.763978E-1,-2.9303342E-1,-6.4353424E-1,2.5033882E-1,1.5016291E0,1.6595541E-1,4.5453104E-1,-6.323538E-1,2.0495011E-1,-1.1863191E0,-6.367721E-1,-5.1452076E-1,-2.8494427E-1,-9.0398353E-1,1.4443786E0,-1.9278055E-1,-2.8224418E-1,-1.5066214E-1,-4.974763E-1,-8.037537E-1,-2.1764104E-1,-1.07732855E-1,1.4860523E-2,-3.0169997E-1,1.4443786E0,-8.9035505E-1,-1.4063464E-1,-6.902934E-1,1.2132784E-1,-1.8009838E-1,-1.4547888E0,-6.833832E-1,3.7033233E-1,-6.948813E-1,8.197903E-1,-6.529717E-1,4.818331E-1,-9.0549827E-1,-8.284243E-1,3.860927E-1,-2.0359755E-1,-6.7818826E-1,-9.0549827E-1,-1.5934564E-2,-6.51935E-1,-2.495352E-1,-1.3188381E-1,2.7677236E0,-7.035881E-1,-1.2375429E0,1.6966289E0,-3.659805E-1,7.612365E-2,-8.621342E-1,1.5663335E-1,-4.7223216E-1,2.5122581E-2,-4.8212817E-1,1.0737168E0,-2.965741E-1,-6.867993E-1,-6.456897E-1,-1.1160721E-1,-5.806783E-1,8.2716174E-2,-3.4608823E-1,3.0934336E0,4.4272058E-2,-1.2321035E0,3.5742671E0,-2.5371367E-1,3.6337923E-2,-3.5592046E-2,-4.6613287E-2,2.2478878E-2,-6.72321E-2,1.1544527E-1,1.8241424E-2,-3.2306533E-2,-4.449855E-3,-4.795335E-2,1.600293E-1,5.5426597E-3,-7.5519636E-2,7.3718275E-3,-2.7688533E-2,1.0788353E-1,1.4852674E-1,3.9146107E-2,1.888917E-2,-6.087611E-2,1.4724474E-1,-8.795046E-3,-6.157471E-2,6.0309406E-2,-2.9504364E-2,1.434224E-1,-5.5505455E-2,9.721089E-2,2.0300558E-1,-1.6673496E-2,-8.7137155E-2,-2.4502032E-2,-1.0172667E-1,-3.251391E-3,-1.4925778E-2,-6.261466E-2,-8.117096E-2,-1.12059705E-1,-3.3739302E-2,1.6307262E-1,-2.229183E-2,-6.218631E-2,-5.5975467E-2,2.8460218E-2,6.2345713E-2,-3.3062078E-2,-5.5319518E-2,-1.427969E-1,-7.2214134E-2,5.9221793E-2,-2.755109E-2,-1.1301605E-1,-5.847623E-2,6.035574E-2,1.0858359E-1,-7.138461E-2,3.5468884E-2,-1.365232E-1,3.0347181E-2,-1.5954597E-1,8.673798E-2,-9.4169825E-2,3.2632943E-2,-1.7995037E-1,1.0758823E-1,5.6929745E-2,-1.02926694E-1,6.7996256E-2],"split_indices":[3,21,3,4,8,0,9,9,0,17,8,2,8,20,0,20,13,0,22,0,21,14,5,0,14,21,20,0,7,16,20,0,14,2,10,15,3,19,7,2,0,9,0,20,2,9,17,9,6,22,0,0,0,11,20,11,0,14,14,2,0,18,2,8,22,0,4,3,20,2,16,9,21,17,10,22,0,22,0,21,2,0,1,3,16,0,0,0,0,0,0,0,0,0,0,0,0,0,0,0,0,0,0,0,0,0,0,0,0,0,0,0,0,0,0,0,0,0,0,0,0,0,0,0,0,0,0,0,0,0,0,0,0,0,0,0,0,0,0,0,0,0,0,0,0,0,0,0,0,0,0,0,0],"split_type":[0,0,0,0,0,0,0,0,0,0,0,0,0,0,0,0,0,0,0,0,0,0,0,0,0,0,0,0,0,0,0,0,0,0,0,0,0,0,0,0,0,0,0,0,0,0,0,0,0,0,0,0,0,0,0,0,0,0,0,0,0,0,0,0,0,0,0,0,0,0,0,0,0,0,0,0,0,0,0,0,0,0,0,0,0,0,0,0,0,0,0,0,0,0,0,0,0,0,0,0,0,0,0,0,0,0,0,0,0,0,0,0,0,0,0,0,0,0,0,0,0,0,0,0,0,0,0,0,0,0,0,0,0,0,0,0,0,0,0,0,0,0,0,0,0,0,0,0,0,0,0,0,0],"sum_hessian":[6.9097695E3,5.72514E3,1.1846298E3,3.1198345E3,2.6053054E3,1.13068695E2,1.071561E3,2.6300188E3,4.8981573E2,2.4350916E3,1.702139E2,2.0426432E1,1.0511346E3,1.7238035E3,9.0621533E2,4.7640576E2,1.3409977E1,1.3749117E3,1.0601798E3,1.115585E1,1.5905804E2,1.174217E1,8.684262E0,5.967715E2,4.543631E2,7.580874E2,9.65716E2,6.188495E2,2.8736584E2,1.3742896E2,3.389768E2,6.4599047E0,6.950072E0,8.7042535E2,5.0448642E2,7.3579095E2,3.2438892E2,1.4458266E2,1.4475386E1,8.845979E0,2.8961914E0,5.6523595E0,3.0319026E0,6.838144E0,5.8993335E2,3.9712634E0,4.5039185E2,3.149576E2,4.4312982E2,7.260828E1,8.931077E2,4.7173776E2,1.4711171E2,2.7171518E2,1.5650666E1,9.309489E1,4.4334064E1,2.6550138E1,3.124267E2,3.958431E0,2.991641E0,2.673043E2,6.031211E2,3.116144E2,1.9287201E2,2.8158932E2,4.5420163E2,1.1618751E1,3.1277017E2,7.372108E1,7.086157E1,1.0189552E1,4.285833E0,3.1994755E0,5.646503E0,4.4086676E0,1.2436918E0,5.544633E0,1.2935112E0,1.1340559E1,5.785928E2,1.4643661E0,2.5068972E0,4.4211282E2,8.279024E0,2.5377553E2,6.118208E1,4.0169812E2,4.1431694E1,1.2457846E0,7.136249E1,7.009651E2,1.9214264E2,2.1963385E2,2.5210393E2,2.702686E1,1.2008485E2,2.5301419E2,1.8701E1,7.348753E0,8.301913E0,7.3042264E0,8.579066E1,2.144191E1,2.2892155E1,2.5396814E1,1.1533225E0,4.6660213E0,3.0776065E2,1.4653907E0,2.4930403E0,2.5899905E2,8.305214E0,1.1012056E1,5.92109E2,6.982116E1,2.4179324E2,1.6888809E2,2.3983925E1,8.552044E1,1.9606886E2,2.2950465E2,2.2469699E2,5.9394054E0,5.679345E0,1.9707153E2,1.1569864E2,3.0695974E1,4.3025105E1,5.7774723E1,1.3086851E1,2.5030062E0,7.6865463E0,2.8454094E0,1.4404234E0,1.7118585E0,1.4876171E0,1.7380661E0,3.908437E0,2.9361455E0,1.4725221E0,1.129477E0,4.4151554E0,9.681111E0,1.6594477E0,5.764719E2,2.1208432E0,1.2302495E0,1.2766477E0,4.1958563E2,2.2527191E1,2.3898063E0,5.8892174E0],"tree_param":{"num_deleted":"0","num_feature":"23","num_nodes":"153","size_leaf_vector":"1"}},{"base_weights":[9.601827E-3,-2.544711E-1,5.824177E-1,-5.829149E-2,-4.2341137E-1,2.5397024E-1,8.700566E-1,2.1281989E-1,-1.4485471E-1,-4.7225383E-1,1.7960341E-1,1.3006045E-1,2.0485364E-1,1.2721519E-1,8.304388E-1,3.8852068E-3,1.1850481E0,-1.8012492E-1,6.475304E-1,-4.0068874E-1,-7.432882E-1,1.9602685E-1,1.1472278E-1,2.578954E-1,-6.142222E-1,-8.9175604E-2,8.4814155E-1,2.0267208E-1,-5.6318736E-1,1.566486E-1,8.943443E-1,-2.1504813E-1,4.9472633E-1,7.960072E-1,-7.8460604E-1,-9.4555897E-1,-3.4399924E-1,-8.3083653E-1,-2.4276665E-1,2.0265032E-1,-9.1980684E-1,1.2877099E-1,5.249366E-1,-9.543515E-1,8.9370914E-2,-5.609152E-1,4.9580908E-1,8.6623996E-1,1.8065357E-1,-5.7771634E-2,1.6511957E-1,-9.30646E-1,-1.978391E-1,-2.7354637E-1,1.577845E-1,-1.6347344E-1,-7.19042E-1,-3.155265E-1,6.9155216E-1,8.630847E-1,-1.0596571E-1,-1.3047811E-1,9.653265E-2,-1.1428878E0,-7.169265E-1,3.9827853E-2,-4.2072916E-1,-3.7539232E-1,-8.9621484E-1,-4.475533E-2,-9.4091666E-1,-8.118265E-2,5.6358725E-1,1.1678929E-2,-1.0611266E0,1.9056554E-1,-5.8711946E-1,1.7360052E-1,6.431404E-1,-1.8759471E-1,-1.1570575E0,-3.4375086E-1,1.4948729E-1,-2.1634057E-1,-1.2915955E-1,-6.278324E-2,7.2761226E-1,7.761121E-1,9.7827053E-1,-1.11328855E-1,3.4303924E-1,5.6790587E-2,-3.083463E-2,-1.01275675E-1,3.1239796E-2,-8.667131E-4,-8.418808E-2,-4.6112623E-2,6.532316E-2,-3.0849434E-3,-3.494847E-2,-8.063495E-2,7.404197E-2,8.900158E-3,-1.4551878E-1,-7.4063814E-3,8.288237E-2,7.040365E-2,1.6470642E-1,-3.4634788E-2,-1.2057396E-1,-3.532936E-2,-1.13679364E-1,-1.0406866E-2,1.9128321E-1,-4.527305E-2,3.4330357E-2,-6.6743426E-2,1.03805296E-1,-7.4955344E-2,-1.080776E-1,-1.2183621E-1,9.825076E-3,-1.13811076E-1,3.0309102E-2,2.9349366E-2,-2.986379E-2,7.574446E-2,-4.1096594E-2,-1.17604844E-1,5.3402963E-3,4.050856E-2,1.9461293E-3,-8.3133005E-2,2.9474778E-2,2.9575182E-2,-9.1260344E-2,7.291166E-2,2.5063673E-2,3.7824523E-2,-1.11438446E-1,-1.2528196E-1,-9.21966E-3,3.7777152E-2,-7.3038705E-2,-1.1110725E-1,1.2816849E-2,1.1922125E-1,3.5458423E-2,8.174733E-2,2.2624204E-2,9.9448115E-2,-1.6598266E-2,7.587803E-2,-2.0741846E-2],"categories":[],"categories_nodes":[],"categories_segments":[],"categories_sizes":[],"default_left":[0,0,0,0,0,0,0,0,0,0,0,0,0,0,0,0,0,0,0,0,0,0,0,0,0,0,0,0,0,0,0,0,0,0,0,0,0,0,0,0,0,0,0,0,0,0,0,0,0,0,0,0,0,0,0,0,0,0,0,0,0,0,0,0,0,0,0,0,0,0,0,0,0,0,0,0,0,0,0,0,0,0,0,0,0,0,0,0,0,0,0,0,0,0,0,0,0,0,0,0,0,0,0,0,0,0,0,0,0,0,0,0,0,0,0,0,0,0,0,0,0,0,0,0,0,0,0,0,0,0,0,0,0,0,0,0,0,0,0,0,0,0,0,0,0,0,0,0,0,0,0,0,0,0,0],"id":8,"left_children":[1,3,5,7,9,11,13,15,17,19,21,-1,23,-1,25,27,29,31,33,35,37,-1,39,41,43,45,47,49,51,-1,53,55,57,59,61,63,65,67,69,71,73,75,77,79,81,83,85,87,89,91,-1,93,95,97,-1,99,101,103,105,107,-1,-1,-1,109,111,113,115,117,119,121,123,125,127,-1,129,131,133,135,137,139,141,143,-1,145,-1,-1,147,149,151,-1,153,-1,-1,-1,-1,-1,-1,-1,-1,-1,-1,-1,-1,-1,-1,-1,-1,-1,-1,-1,-1,-1,-1,-1,-1,-1,-1,-1,-1,-1,-1,-1,-1,-1,-1,-1,-1,-1,-1,-1,-1,-1,-1,-1,-1,-1,-1,-1,-1,-1,-1,-1,-1,-1,-1,-1,-1,-1,-1,-1,-1,-1,-1,-1,-1],"loss_changes":[1.032498E3,1.5481668E2,2.0325781E2,5.078966E1,7.401413E1,5.1499504E1,1.7228455E1,1.0640736E2,4.59511E1,4.4746765E1,2.1587477E1,0E0,4.1997433E1,0E0,1.713269E1,4.8833977E1,8.873795E0,3.712952E1,1.5531887E1,5.6489838E1,2.100412E1,0E0,1.685333E1,3.114381E1,1.41728325E1,5.988637E0,1.2262939E1,1.2110095E2,1.4911705E1,0E0,4.426802E1,3.8724586E1,1.2593235E1,8.882992E0,7.7125645E0,6.9750824E0,4.9129288E1,1.191568E1,1.0112793E1,1.7430063E1,2.2529697E0,2.716187E1,1.2127007E1,5.9640503E0,1.2748532E1,2.722891E0,3.0011947E0,9.344482E0,6.349807E0,4.2949722E1,0E0,6.010788E0,7.017025E0,3.9738715E0,0E0,3.3462986E1,1.8235573E1,7.4378633E0,6.6556416E0,6.61298E0,0E0,0E0,0E0,4.1406097E0,1.2227489E1,7.5324646E1,3.413762E1,2.2724274E1,8.910034E0,9.900463E0,4.3143005E0,7.89842E0,1.4447735E1,0E0,1.7136831E0,2.0680378E1,1.0761486E1,1.0295105E1,7.2461395E0,5.4080644E0,3.0721817E0,4.7886267E0,0E0,3.0104518E0,0E0,0E0,1.0609984E0,1.2537109E1,8.368927E0,0E0,6.107458E0,0E0,0E0,0E0,0E0,0E0,0E0,0E0,0E0,0E0,0E0,0E0,0E0,0E0,0E0,0E0,0E0,0E0,0E0,0E0,0E0,0E0,0E0,0E0,0E0,0E0,0E0,0E0,0E0,0E0,0E0,0E0,0E0,0E0,0E0,0E0,0E0,0E0,0E0,0E0,0E0,0E0,0E0,0E0,0E0,0E0,0E0,0E0,0E0,0E0,0E0,0E0,0E0,0E0,0E0,0E0,0E0,0E0,0E0,0E0,0E0,0E0,0E0,0E0,0E0],"parents":[2147483647,0,0,1,1,2,2,3,3,4,4,5,5,6,6,7,7,8,8,9,9,10,10,12,12,14,14,15,15,16,16,17,17,18,18,19,19,20,20,22,22,23,23,24,24,25,25,26,26,27,27,28,28,30,30,31,31,32,32,33,33,34,34,35,35,36,36,37,37,38,38,39,39,40,40,41,41,42,42,43,43,44,44,45,45,46,46,47,47,48,48,49,49,51,51,52,52,53,53,55,55,56,56,57,57,58,58,59,59,63,63,64,64,65,65,66,66,67,67,68,68,69,69,70,70,71,71,72,72,74,74,75,75,76,76,77,77,78,78,79,79,80,80,81,81,83,83,86,86,87,87,88,88,90,90],"right_children":[2,4,6,8,10,12,14,16,18,20,22,-1,24,-1,26,28,30,32,34,36,38,-1,40,42,44,46,48,50,52,-1,54,56,58,60,62,64,66,68,70,72,74,76,78,80,82,84,86,88,90,92,-1,94,96,98,-1,100,102,104,106,108,-1,-1,-1,110,112,114,116,118,120,122,124,126,128,-1,130,132,134,136,138,140,142,144,-1,146,-1,-1,148,150,152,-1,154,-1,-1,-1,-1,-1,-1,-1,-1,-1,-1,-1,-1,-1,-1,-1,-1,-1,-1,-1,-1,-1,-1,-1,-1,-1,-1,-1,-1,-1,-1,-1,-1,-1,-1,-1,-1,-1,-1,-1,-1,-1,-1,-1,-1,-1,-1,-1,-1,-1,-1,-1,-1,-1,-1,-1,-1,-1,-1,-1,-1,-1,-1,-1,-1],"split_conditions":[2.5805384E-2,-1.7018579E-1,9.155191E-1,-9.0549827E-1,8.197903E-1,9.047122E-1,1.7945639E0,-1.0570058E0,6.1555624E-1,1.770291E-1,1.8994358E0,1.3006045E-1,1.3762811E-1,1.2721519E-1,-6.882268E-1,-1.0596461E0,-9.828315E-1,8.197903E-1,7.9012895E-1,-1.6934958E-1,3.1439764E0,1.9602685E-1,2.3216146E-1,2.0495011E-1,4.1418132E-1,4.1418132E-1,4.656269E-1,-1.1325033E0,-3.9814475E-1,1.566486E-1,-9.721736E-1,-3.378543E-2,-6.6424316E-1,3.1809416E-1,-3.4170914E-1,-1.9555889E-1,-7.5135034E-1,-6.771008E-1,4.7368082E-1,-1.3783118E-1,-2.9303342E-1,-2.3531473E-1,-3.073604E-1,-6.482635E-1,1.4443786E0,-6.323538E-1,-1.2375429E0,1.4443786E0,-2.48967E-1,-1.1367202E0,1.6511957E-1,6.1555624E-1,-2.2406872E-1,-1.1553342E-1,1.577845E-1,1.4860523E-2,1.4443786E0,1.4067206E0,-3.1151798E-1,-5.924126E-1,-1.0596571E-1,-1.3047811E-1,9.653265E-2,-6.2619483E-1,-2.8690365E-1,-8.250813E-1,3.8829505E-1,-1.2375429E0,2.6181358E-1,2.9930678E-1,5.261847E0,-2.5945258E-1,1.574625E0,1.1678929E-2,1.5859437E-1,-6.164517E-1,1.0284666E0,2.9913621E-2,-1.1510883E-1,-6.855319E-1,3.454933E0,7.297888E-2,1.4948729E-1,-6.51935E-1,-1.2915955E-1,-6.278324E-2,-6.5082675E-1,1.6831113E0,3.7033233E-1,-1.11328855E-1,5.652021E-1,5.6790587E-2,-3.083463E-2,-1.01275675E-1,3.1239796E-2,-8.667131E-4,-8.418808E-2,-4.6112623E-2,6.532316E-2,-3.0849434E-3,-3.494847E-2,-8.063495E-2,7.404197E-2,8.900158E-3,-1.4551878E-1,-7.4063814E-3,8.288237E-2,7.040365E-2,1.6470642E-1,-3.4634788E-2,-1.2057396E-1,-3.532936E-2,-1.13679364E-1,-1.0406866E-2,1.9128321E-1,-4.527305E-2,3.4330357E-2,-6.6743426E-2,1.03805296E-1,-7.4955344E-2,-1.080776E-1,-1.2183621E-1,9.825076E-3,-1.13811076E-1,3.0309102E-2,2.9349366E-2,-2.986379E-2,7.574446E-2,-4.1096594E-2,-1.17604844E-1,5.3402963E-3,4.050856E-2,1.9461293E-3,-8.3133005E-2,2.9474778E-2,2.9575182E-2,-9.1260344E-2,7.291166E-2,2.5063673E-2,3.7824523E-2,-1.11438446E-1,-1.2528196E-1,-9.21966E-3,3.7777152E-2,-7.3038705E-2,-1.1110725E-1,1.2816849E-2,1.1922125E-1,3.5458423E-2,8.174733E-2,2.2624204E-2,9.9448115E-2,-1.6598266E-2,7.587803E-2,-2.0741846E-2],"split_indices":[3,16,3,0,6,3,3,0,4,16,6,0,21,0,9,0,0,6,0,16,10,0,21,5,2,2,19,0,14,0,0,17,12,21,15,20,0,6,16,2,20,15,18,12,7,14,8,7,14,0,0,4,12,15,0,3,7,0,19,13,0,0,0,9,21,0,8,8,15,15,21,19,2,0,17,8,0,0,16,10,13,0,0,14,0,0,14,2,17,0,1,0,0,0,0,0,0,0,0,0,0,0,0,0,0,0,0,0,0,0,0,0,0,0,0,0,0,0,0,0,0,0,0,0,0,0,0,0,0,0,0,0,0,0,0,0,0,0,0,0,0,0,0,0,0,0,0,0,0,0,0,0,0,0,0],"split_type":[0,0,0,0,0,0,0,0,0,0,0,0,0,0,0,0,0,0,0,0,0,0,0,0,0,0,0,0,0,0,0,0,0,0,0,0,0,0,0,0,0,0,0,0,0,0,0,0,0,0,0,0,0,0,0,0,0,0,0,0,0,0,0,0,0,0,0,0,0,0,0,0,0,0,0,0,0,0,0,0,0,0,0,0,0,0,0,0,0,0,0,0,0,0,0,0,0,0,0,0,0,0,0,0,0,0,0,0,0,0,0,0,0,0,0,0,0,0,0,0,0,0,0,0,0,0,0,0,0,0,0,0,0,0,0,0,0,0,0,0,0,0,0,0,0,0,0,0,0,0,0,0,0,0,0],"sum_hessian":[6.8237686E3,4.6709688E3,2.1528E3,2.1618706E3,2.5090981E3,1.00598004E3,1.14682E3,5.228557E2,1.6390148E3,2.3212966E3,1.8780148E2,4.3950527E1,9.620295E2,1.0006936E2,1.0467506E3,4.311947E2,9.1661E1,1.5699086E3,6.910625E1,1.8383652E3,4.8293146E2,5.5752034E0,1.8222629E2,9.0416284E2,5.7866684E1,1.9693293E1,1.0270573E3,3.197494E2,1.1144532E2,3.7745647E1,5.391535E1,1.4933118E3,7.659678E1,6.3017124E1,6.0891223E0,1.7176537E2,1.6665999E3,4.104738E2,7.245765E1,1.6869273E2,1.3533549E1,6.1046326E2,2.936996E2,3.876878E1,1.9097906E1,1.092465E1,8.768641E0,9.996546E2,2.7402678E1,2.7183392E2,4.7915462E1,5.479077E1,5.665455E1,2.0126019E1,3.3789333E1,1.3558856E3,1.3742612E2,1.4852389E1,6.1744392E1,6.1334915E1,1.6822073E0,4.8899465E0,1.1991756E0,9.004782E1,8.1717545E1,2.7773972E2,1.3888601E3,5.2372635E1,3.5810117E2,5.7276756E1,1.5180894E1,9.486671E1,7.3826035E1,1.6445051E0,1.1889045E1,5.6263153E2,4.7831673E1,7.455855E1,2.1914104E2,8.5088E0,3.0259981E1,1.5176512E1,3.921394E0,8.304494E0,2.6201568E0,1.2074043E0,7.5612373E0,5.5837396E2,4.4128067E2,2.4025497E0,2.5000128E1,7.737198E1,1.9446194E2,5.1569546E1,3.2212236E0,4.4575123E1,1.2079427E1,1.7156073E1,2.969947E0,7.922126E2,5.636731E2,1.3009132E2,7.3347864E0,1.1641936E1,3.2104537E0,9.457378E0,5.2287014E1,5.2568268E1,8.766649E0,7.061817E0,8.298601E1,4.477814E1,3.6939404E1,2.5880133E2,1.8938385E1,1.3334177E3,5.544248E1,4.3841934E1,8.530698E0,2.0235841E2,1.5574275E2,5.4044504E0,5.1872307E1,1.3177229E1,2.003665E0,3.471057E1,6.015613E1,6.1762974E1,1.2063061E1,1.072769E1,1.1613544E0,2.4903687E2,3.135947E2,3.7503376E1,1.0328294E1,6.767567E1,6.882886E0,1.7906093E2,4.0080105E1,5.6507063E0,2.8580925E0,2.7601307E1,2.6586745E0,5.3030796E0,9.873432E0,1.6900747E0,6.614419E0,2.3893285E0,5.171909E0,5.188587E2,3.9515213E1,4.3524545E2,6.0352254E0,1.4027332E1,1.09727955E1],"tree_param":{"num_deleted":"0","num_feature":"23","num_nodes":"155","size_leaf_vector":"1"}},{"base_weights":[1.3180656E-3,-2.4216746E-1,5.4066336E-1,1.2200496E-2,-3.6137253E-1,2.3230965E-1,8.233664E-1,-3.2745283E-2,1.7148773E-1,-1.1429595E-1,-5.201748E-1,1.2615159E-1,1.8450414E-1,3.0838355E-1,8.6098266E-1,1.330873E-2,-6.902092E-1,4.842752E-3,-3.9941123E-1,-6.849982E-1,-3.2015157E-1,-6.9757175E-1,2.2453584E-1,6.225379E-1,-1.4178857E-1,1.2353549E-1,8.2506317E-1,-5.715697E-2,1.87012E-1,-8.2757235E-1,5.76263E-1,-8.3874035E-1,4.2295374E-2,-7.908194E-1,-2.4886428E-1,-7.2574586E-1,1.0788915E-1,-1.6784783E-1,-5.456488E-1,-8.22549E-1,3.651237E-1,1.3984855E-1,5.663163E-1,4.4211984E-2,8.9902425E-1,1.10270195E-1,-5.4606885E-1,8.526306E-1,4.911922E-1,1.4337364E-1,-2.8460476E-1,-9.260591E-1,4.184077E-2,1.0564961E0,-5.0437665E-1,1.174677E0,-1.0617254E0,3.9523688E-1,-5.0780613E-2,-5.342665E-1,-1.1768179E0,2.1952175E-1,-3.013045E-1,-4.3620694E-1,-7.948977E-1,5.1491135E-1,-5.9552E-1,-2.0775059E-1,1.9808969E-1,-8.398359E-1,-2.2025663E-1,-1.0025855E0,4.4827417E-1,9.1001314E-1,-8.340562E-2,1.7761622E-1,-8.416262E-1,6.035203E-1,-5.1925915E-1,-3.3016318E-1,7.389229E-1,9.814413E-1,-6.0536522E-2,5.836863E-1,-8.067957E-1,1.6896291E-1,8.630114E-1,-6.7195666E-1,6.09013E-1,-1.0245997E-2,1.18830495E-1,-4.7667027E-2,2.5127307E-2,-1.0292529E-1,-4.0934935E-2,7.884659E-2,-7.710294E-2,-4.4577457E-3,1.416534E-1,3.2565664E-2,-1.0492758E-1,1.3961987E-1,3.308302E-2,-1.20647006E-1,-1.1648243E-2,-8.7332726E-2,5.1437236E-2,2.9288412E-3,-5.991112E-2,-1.1507274E-1,-2.3362212E-2,-1.19560264E-1,-2.5737619E-2,-1.5545937E-2,-6.98108E-2,-5.641638E-2,2.1179615E-1,-5.581289E-2,-9.277294E-2,-5.809049E-2,8.164587E-2,-8.019003E-2,7.802879E-2,-2.6568512E-2,5.9739437E-2,2.2860777E-2,-9.3578935E-2,3.8887763E-3,-5.1929083E-2,3.948584E-2,-1.1627056E-1,1.2896276E-1,-8.949122E-2,1.3124995E-1,3.890549E-3,2.3301678E-2,-3.9276667E-2,-1.01225935E-1,4.2109635E-2,6.499144E-2,-1.2587723E-2,-1.1022242E-1,4.408255E-2,5.5154223E-2,-6.0180664E-2,1.093572E-1,-3.6794703E-2,1.0842587E-1,4.484759E-2,8.749492E-2,-5.7626334E-3,-9.62967E-2,4.5559112E-2,7.642685E-2,-6.63996E-2,8.863052E-2,5.5360436E-2,2.9959409E-2,-1.0907977E-1,9.653623E-2,1.220725E-2],"categories":[],"categories_nodes":[],"categories_segments":[],"categories_sizes":[],"default_left":[0,0,0,0,0,0,0,0,0,0,0,0,0,0,0,0,0,0,0,0,0,0,0,0,0,0,0,0,0,0,0,0,0,0,0,0,0,0,0,0,0,0,0,0,0,0,0,0,0,0,0,0,0,0,0,0,0,0,0,0,0,0,0,0,0,0,0,0,0,0,0,0,0,0,0,0,0,0,0,0,0,0,0,0,0,0,0,0,0,0,0,0,0,0,0,0,0,0,0,0,0,0,0,0,0,0,0,0,0,0,0,0,0,0,0,0,0,0,0,0,0,0,0,0,0,0,0,0,0,0,0,0,0,0,0,0,0,0,0,0,0,0,0,0,0,0,0,0,0,0,0,0,0,0,0,0,0,0,0,0,0],"id":9,"left_children":[1,3,5,7,9,11,13,15,-1,17,19,-1,21,23,25,27,29,31,33,35,37,39,41,43,45,-1,47,49,-1,51,53,55,57,59,61,63,65,67,69,71,73,75,77,79,81,-1,83,85,87,89,91,93,95,97,99,101,103,105,107,109,111,-1,113,115,117,119,121,123,-1,125,127,129,131,133,-1,135,137,139,141,143,145,147,-1,149,151,153,155,157,159,-1,-1,-1,-1,-1,-1,-1,-1,-1,-1,-1,-1,-1,-1,-1,-1,-1,-1,-1,-1,-1,-1,-1,-1,-1,-1,-1,-1,-1,-1,-1,-1,-1,-1,-1,-1,-1,-1,-1,-1,-1,-1,-1,-1,-1,-1,-1,-1,-1,-1,-1,-1,-1,-1,-1,-1,-1,-1,-1,-1,-1,-1,-1,-1,-1,-1,-1,-1,-1,-1,-1,-1],"loss_changes":[8.808911E2,1.4013687E2,1.8168121E2,1.1298546E2,1.2341049E2,4.8934372E1,2.0812012E1,4.3570988E1,0E0,4.1867653E1,6.292639E1,0E0,3.3917896E1,1.0783226E1,1.2608643E1,1.7615262E2,1.686436E1,2.7530544E1,2.1207436E1,3.3975494E1,2.9689857E1,5.845455E0,2.6415424E1,7.1119404E0,1.665046E1,0E0,8.119873E0,5.9209354E1,0E0,7.3505173E0,5.622161E0,1.787771E1,2.7424154E1,9.31818E0,3.4472088E1,1.9635986E1,1.5238506E1,4.4912575E1,3.3236076E1,9.067087E0,4.082313E0,2.7391434E1,7.6414604E0,4.279997E0,4.339533E0,0E0,7.7597175E0,5.9263916E0,1.0429483E1,1.7739214E2,6.2715088E1,3.6708832E0,6.46199E0,2.882794E0,2.0124848E0,3.1724215E-1,4.4940834E0,2.6776024E1,2.903875E1,1.1253702E1,3.705864E-1,0E0,1.4888237E1,6.4803116E1,2.4780975E1,1.1568355E1,6.1853857E0,2.3969507E1,0E0,1.897548E1,1.2971556E1,7.9103775E0,7.2169647E0,1.3426948E0,0E0,2.2480145E1,6.3313007E0,6.0339813E0,4.1517572E0,2.912689E0,2.6568153E0,1.1040039E0,0E0,1.0254862E0,4.485156E0,7.469708E0,5.581848E0,3.2569113E0,1.1493624E1,0E0,0E0,0E0,0E0,0E0,0E0,0E0,0E0,0E0,0E0,0E0,0E0,0E0,0E0,0E0,0E0,0E0,0E0,0E0,0E0,0E0,0E0,0E0,0E0,0E0,0E0,0E0,0E0,0E0,0E0,0E0,0E0,0E0,0E0,0E0,0E0,0E0,0E0,0E0,0E0,0E0,0E0,0E0,0E0,0E0,0E0,0E0,0E0,0E0,0E0,0E0,0E0,0E0,0E0,0E0,0E0,0E0,0E0,0E0,0E0,0E0,0E0,0E0,0E0,0E0,0E0,0E0,0E0,0E0,0E0,0E0,0E0],"parents":[2147483647,0,0,1,1,2,2,3,3,4,4,5,5,6,6,7,7,9,9,10,10,12,12,13,13,14,14,15,15,16,16,17,17,18,18,19,19,20,20,21,21,22,22,23,23,24,24,26,26,27,27,29,29,30,30,31,31,32,32,33,33,34,34,35,35,36,36,37,37,38,38,39,39,40,40,41,41,42,42,43,43,44,44,46,46,47,47,48,48,49,49,50,50,51,51,52,52,53,53,54,54,55,55,56,56,57,57,58,58,59,59,60,60,62,62,63,63,64,64,65,65,66,66,67,67,69,69,70,70,71,71,72,72,73,73,75,75,76,76,77,77,78,78,79,79,80,80,81,81,83,83,84,84,85,85,86,86,87,87,88,88],"right_children":[2,4,6,8,10,12,14,16,-1,18,20,-1,22,24,26,28,30,32,34,36,38,40,42,44,46,-1,48,50,-1,52,54,56,58,60,62,64,66,68,70,72,74,76,78,80,82,-1,84,86,88,90,92,94,96,98,100,102,104,106,108,110,112,-1,114,116,118,120,122,124,-1,126,128,130,132,134,-1,136,138,140,142,144,146,148,-1,150,152,154,156,158,160,-1,-1,-1,-1,-1,-1,-1,-1,-1,-1,-1,-1,-1,-1,-1,-1,-1,-1,-1,-1,-1,-1,-1,-1,-1,-1,-1,-1,-1,-1,-1,-1,-1,-1,-1,-1,-1,-1,-1,-1,-1,-1,-1,-1,-1,-1,-1,-1,-1,-1,-1,-1,-1,-1,-1,-1,-1,-1,-1,-1,-1,-1,-1,-1,-1,